{"learner":{"attributes":{"scikit_learn":"{\"_estimator_type\": \"regressor\"}"},"feature_names":[],"feature_types":[],"gradient_booster":{"model":{"cats":{"enc":[],"feature_segments":[],"sorted_idx":[]},"gbtree_model_param":{"num_parallel_tree":"1","num_trees":"500"},"iteration_indptr":[0,1,2,3,4,5,6,7,8,9,10,11,12,13,14,15,16,17,18,19,20,21,22,23,24,25,26,27,28,29,30,31,32,33,34,35,36,37,38,39,40,41,42,43,44,45,46,47,48,49,50,51,52,53,54,55,56,57,58,59,60,61,62,63,64,65,66,67,68,69,70,71,72,73,74,75,76,77,78,79,80,81,82,83,84,85,86,87,88,89,90,91,92,93,94,95,96,97,98,99,100,101,102,103,104,105,106,107,108,109,110,111,112,113,114,115,116,117,118,119,120,121,122,123,124,125,126,127,128,129,130,131,132,133,134,135,136,137,138,139,140,141,142,143,144,145,146,147,148,149,150,151,152,153,154,155,156,157,158,159,160,161,162,163,164,165,166,167,168,169,170,171,172,173,174,175,176,177,178,179,180,181,182,183,184,185,186,187,188,189,190,191,192,193,194,195,196,197,198,199,200,201,202,203,204,205,206,207,208,209,210,211,212,213,214,215,216,217,218,219,220,221,222,223,224,225,226,227,228,229,230,231,232,233,234,235,236,237,238,239,240,241,242,243,244,245,246,247,248,249,250,251,252,253,254,255,256,257,258,259,260,261,262,263,264,265,266,267,268,269,270,271,272,273,274,275,276,277,278,279,280,281,282,283,284,285,286,287,288,289,290,291,292,293,294,295,296,297,298,299,300,301,302,303,304,305,306,307,308,309,310,311,312,313,314,315,316,317,318,319,320,321,322,323,324,325,326,327,328,329,330,331,332,333,334,335,336,337,338,339,340,341,342,343,344,345,346,347,348,349,350,351,352,353,354,355,356,357,358,359,360,361,362,363,364,365,366,367,368,369,370,371,372,373,374,375,376,377,378,379,380,381,382,383,384,385,386,387,388,389,390,391,392,393,394,395,396,397,398,399,400,401,402,403,404,405,406,407,408,409,410,411,412,413,414,415,416,417,418,419,420,421,422,423,424,425,426,427,428,429,430,431,432,433,434,435,436,437,438,439,440,441,442,443,444,445,446,447,448,449,450,451,452,453,454,455,456,457,458,459,460,461,462,463,464,465,466,467,468,469,470,471,472,473,474,475,476,477,478,479,480,481,482,483,484,485,486,487,488,489,490,491,492,493,494,495,496,497,498,499,500],"tree_info":[0,0,0,0,0,0,0,0,0,0,0,0,0,0,0,0,0,0,0,0,0,0,0,0,0,0,0,0,0,0,0,0,0,0,0,0,0,0,0,0,0,0,0,0,0,0,0,0,0,0,0,0,0,0,0,0,0,0,0,0,0,0,0,0,0,0,0,0,0,0,0,0,0,0,0,0,0,0,0,0,0,0,0,0,0,0,0,0,0,0,0,0,0,0,0,0,0,0,0,0,0,0,0,0,0,0,0,0,0,0,0,0,0,0,0,0,0,0,0,0,0,0,0,0,0,0,0,0,0,0,0,0,0,0,0,0,0,0,0,0,0,0,0,0,0,0,0,0,0,0,0,0,0,0,0,0,0,0,0,0,0,0,0,0,0,0,0,0,0,0,0,0,0,0,0,0,0,0,0,0,0,0,0,0,0,0,0,0,0,0,0,0,0,0,0,0,0,0,0,0,0,0,0,0,0,0,0,0,0,0,0,0,0,0,0,0,0,0,0,0,0,0,0,0,0,0,0,0,0,0,0,0,0,0,0,0,0,0,0,0,0,0,0,0,0,0,0,0,0,0,0,0,0,0,0,0,0,0,0,0,0,0,0,0,0,0,0,0,0,0,0,0,0,0,0,0,0,0,0,0,0,0,0,0,0,0,0,0,0,0,0,0,0,0,0,0,0,0,0,0,0,0,0,0,0,0,0,0,0,0,0,0,0,0,0,0,0,0,0,0,0,0,0,0,0,0,0,0,0,0,0,0,0,0,0,0,0,0,0,0,0,0,0,0,0,0,0,0,0,0,0,0,0,0,0,0,0,0,0,0,0,0,0,0,0,0,0,0,0,0,0,0,0,0,0,0,0,0,0,0,0,0,0,0,0,0,0,0,0,0,0,0,0,0,0,0,0,0,0,0,0,0,0,0,0,0,0,0,0,0,0,0,0,0,0,0,0,0,0,0,0,0,0,0,0,0,0,0,0,0,0,0,0,0,0,0,0,0,0,0,0,0,0,0,0,0,0,0,0,0,0,0,0,0,0,0,0,0,0,0,0,0,0,0,0,0,0,0,0,0,0,0,0,0,0,0,0,0,0,0,0,0,0,0,0,0,0,0,0,0,0,0,0,0,0,0,0,0,0,0],"trees":[{"base_weights":[1.2189361E1,-2.149763E2,1.9109144E3,-5.765987E2,2.6043307E2,1.1049712E3,3.9751006E3,-9.1656757E2,-5.187193E2,-2.1276157E2,7.653536E2,7.4206995E2,1.4243734E3,1.2385238E3,5.3882124E3,-7.217824E2,-9.8035803E2,-5.9927997E2,3.7182367E2,2.5541965E2,-7.574088E2,1.2950167E3,2.690039E2,3.712516E2,8.9129913E2,2.1730742E3,6.168316E2,1.4823979E2,9.493001E2,3.5092343E2,4.4477305E3,-4.365884E1,-5.5302246E2,-1.1532452E3,-3.9682476E1,-7.4681085E2,-4.6804883E2,4.613343E2,1.9262578E2,-3.9899884E2,6.9966614E2,-4.719525E1,-7.306411E2,1.7656951E3,9.922923E2,3.488352E2,-2.1731768E1,9.946203E0,4.3891046E2,9.74336E2,5.7980127E0,9.0653687E2,1.380793E2,-2.0363739E1,6.62516E2,7.682069E1,4.5795905E2,4.7135996E3,1.5769507E2,-3.7817258E2,-4.2570465E1,-6.2896526E1,-5.2260036E1,-5.7163306E2,-9.225035E2,-5.762727E2,-2.2569907E2,1.494841E1,5.0384784E2,2.632014E2,-7.609857E1,-5.403244E1,-5.9164087E2,1.1549144E3,3.5325186E2,-3.701067E1,-3.0700119E1,1.0951112E3,1.9581641E3,5.838612E2,1.0974419E3,4.1214697E2,-1.2001026E2,-6.6398544E1,3.4224323E1,1.8234974E1,2.4896284E1,8.471123E2,6.1901264E1,5.7026276E2,1.0754535E2,2.6659712E1,3.6226E1,3.4279277E0,5.250463E2,2.1582837E2,2.9399826E2,-2.9815458E1,-1.084955E1,-3.5382698E1,-1.6681297E1,-3.8448944E1,-5.2247112E1,-2.9635233E1,1.1923329E1,2.0121646E-1,-2.7038565E1,2.7619648E1,2.2067663E1,2.333928E1,9.704898E0,-8.478381E-1,-7.0256763E0,1.3481242E1,-1.8514204E1,-3.2542667E1,7.2125483E0,7.477401E1,2.6286316E1,1.9886187E0,3.129808E1,5.822812E1,1.8427929E1,1.0576731E2,8.063742E1,2.0194746E1,5.094144E1,4.8527725E1,6.621028E1,1.7742544E1,4.1681244E1,-1.2171625E0,-8.299654E0,1.959034E-1,-4.4692607E0,4.5838947E1,2.5607838E1,6.734933E1,1.6816496E1,8.130574E0,3.190573E1],"categories":[],"categories_nodes":[],"categories_segments":[],"categories_sizes":[],"default_left":[0,0,0,0,0,0,0,0,0,0,0,0,0,0,0,0,0,0,0,0,0,0,0,0,0,0,0,0,0,0,0,0,0,0,0,0,0,0,0,0,0,0,0,0,0,0,0,0,0,0,0,0,0,0,0,0,0,0,0,0,0,0,0,0,0,0,0,0,0,0,0,0,0,0,0,0,0,0,0,0,0,0,0,0,0,0,0,0,0,0,0,0,0,0,0,0,0,0,0,0,0,0,0,0,0,0,0,0,0,0,0,0,0,0,0,0,0,0,0,0,0,0,0,0,0,0,0,0,0,0,0,0,0,0,0,0,0,0,0,0,0],"id":0,"left_children":[1,3,5,7,9,11,13,15,17,19,21,23,25,27,29,31,33,35,37,39,41,43,45,47,49,51,53,-1,55,-1,57,-1,59,61,-1,63,65,67,69,71,73,-1,75,77,79,81,83,-1,85,87,-1,89,-1,-1,91,-1,93,95,-1,97,-1,-1,-1,99,101,103,105,-1,107,109,111,113,115,117,119,-1,-1,121,123,125,127,129,131,133,-1,-1,-1,135,-1,137,-1,-1,-1,-1,139,-1,-1,-1,-1,-1,-1,-1,-1,-1,-1,-1,-1,-1,-1,-1,-1,-1,-1,-1,-1,-1,-1,-1,-1,-1,-1,-1,-1,-1,-1,-1,-1,-1,-1,-1,-1,-1,-1,-1,-1,-1,-1,-1,-1,-1,-1],"loss_changes":[2.7367373E9,9.744135E8,1.1235402E9,6.286547E7,5.852918E8,5.5623744E7,7.280735E8,5.095072E6,1.977305E8,3.227604E8,3.11186E8,1.2451928E7,1.552528E8,3.013792E7,1.6043725E8,2.55748E6,1.0350304E7,4.8536064E7,3.58432E6,1.9826162E8,2.230688E6,7.989229E7,1.4235192E7,7.05536E5,1.0445608E7,9.737645E7,6.164816E6,0E0,1.6027824E7,0E0,1.3340928E7,0E0,2.756222E6,7.09808E5,0E0,3.6005504E7,3.498928E7,8.98586E5,1.4993292E6,1.830962E7,6.362005E7,0E0,1.216E5,2.663744E7,1.4433408E7,1.43272E7,4.2408665E6,0E0,2.8627E4,3.916272E6,0E0,1.7185192E7,0E0,0E0,5.83928E5,0E0,8.2609E5,5.182464E6,0E0,1.24183E6,0E0,0E0,0E0,1.9091168E7,1.0305696E7,1.2525024E7,3.0039652E7,0E0,1.17224E5,7.81637E5,6.238082E4,1.0335552E7,7.80648E6,3.6712784E7,1.9808534E7,0E0,0E0,2.194704E6,5.926848E6,5.381186E6,6.713824E6,9.943376E6,2.5110344E5,2.0400969E5,0E0,0E0,0E0,1.933992E6,0E0,6.088212E6,0E0,0E0,0E0,0E0,1.043672E6,0E0,0E0,0E0,0E0,0E0,0E0,0E0,0E0,0E0,0E0,0E0,0E0,0E0,0E0,0E0,0E0,0E0,0E0,0E0,0E0,0E0,0E0,0E0,0E0,0E0,0E0,0E0,0E0,0E0,0E0,0E0,0E0,0E0,0E0,0E0,0E0,0E0,0E0,0E0,0E0,0E0,0E0,0E0,0E0,0E0,0E0],"parents":[2147483647,0,0,1,1,2,2,3,3,4,4,5,5,6,6,7,7,8,8,9,9,10,10,11,11,12,12,13,13,14,14,15,15,16,16,17,17,18,18,19,19,20,20,21,21,22,22,23,23,24,24,25,25,26,26,28,28,30,30,32,32,33,33,35,35,36,36,37,37,38,38,39,39,40,40,42,42,43,43,44,44,45,45,46,46,48,48,49,49,51,51,54,54,56,56,57,57,59,59,63,63,64,64,65,65,66,66,68,68,69,69,70,70,71,71,72,72,73,73,74,74,77,77,78,78,79,79,80,80,81,81,82,82,83,83,87,87,89,89,94,94],"right_children":[2,4,6,8,10,12,14,16,18,20,22,24,26,28,30,32,34,36,38,40,42,44,46,48,50,52,54,-1,56,-1,58,-1,60,62,-1,64,66,68,70,72,74,-1,76,78,80,82,84,-1,86,88,-1,90,-1,-1,92,-1,94,96,-1,98,-1,-1,-1,100,102,104,106,-1,108,110,112,114,116,118,120,-1,-1,122,124,126,128,130,132,134,-1,-1,-1,136,-1,138,-1,-1,-1,-1,140,-1,-1,-1,-1,-1,-1,-1,-1,-1,-1,-1,-1,-1,-1,-1,-1,-1,-1,-1,-1,-1,-1,-1,-1,-1,-1,-1,-1,-1,-1,-1,-1,-1,-1,-1,-1,-1,-1,-1,-1,-1,-1,-1,-1,-1,-1],"split_conditions":[2E0,8E0,2E3,2.024E3,2.024E3,6.5E2,7E0,2E0,7E0,1E0,1E0,2E2,4E0,2E0,3E0,1E0,1E0,1E0,1.05E3,1E1,1E0,3E0,1.2E1,8E0,2E0,7E0,4E0,1.4823979E2,3E0,3.5092343E2,4E0,-4.365884E1,1E0,7E0,-3.9682476E1,4E0,5E0,4.5E2,1E0,3E0,3E0,-4.719525E1,9.61E2,9E0,9E0,4E0,1.801E3,9.946203E0,1E1,4E2,5.7980127E0,4E0,1.380793E2,-2.0363739E1,1.3E3,7.682069E1,1E0,8E0,1.5769507E2,7E0,-4.2570465E1,-6.2896526E1,-5.2260036E1,2.025E3,2.025E3,1.315E3,2.025E3,1.494841E1,8E2,3E0,1.501E3,1.05E3,3.5E3,1.2E1,1.8E3,-3.701067E1,-3.0700119E1,1.8E3,2.2E3,1.8E3,1.1E1,1.5E3,2E0,6.5E2,3.4224323E1,1.8234974E1,2.4896284E1,2.55E2,6.1901264E1,2E0,1.0754535E2,2.6659712E1,3.6226E1,3.4279277E0,3E0,2.1582837E2,2.9399826E2,-2.9815458E1,-1.084955E1,-3.5382698E1,-1.6681297E1,-3.8448944E1,-5.2247112E1,-2.9635233E1,1.1923329E1,2.0121646E-1,-2.7038565E1,2.7619648E1,2.2067663E1,2.333928E1,9.704898E0,-8.478381E-1,-7.0256763E0,1.3481242E1,-1.8514204E1,-3.2542667E1,7.2125483E0,7.477401E1,2.6286316E1,1.9886187E0,3.129808E1,5.822812E1,1.8427929E1,1.0576731E2,8.063742E1,2.0194746E1,5.094144E1,4.8527725E1,6.621028E1,1.7742544E1,4.1681244E1,-1.2171625E0,-8.299654E0,1.959034E-1,-4.4692607E0,4.5838947E1,2.5607838E1,6.734933E1,1.6816496E1,8.130574E0,3.190573E1],"split_indices":[0,2,9,3,3,9,2,1,2,0,0,9,1,1,1,1,0,0,9,2,1,1,2,2,1,2,0,0,0,0,1,0,0,2,0,2,2,9,0,1,1,0,9,2,2,1,9,0,2,9,0,0,0,0,9,0,5,2,0,2,0,0,0,3,3,9,3,0,9,1,9,9,9,2,9,0,0,9,9,9,2,9,5,9,0,0,0,9,0,1,0,0,0,0,1,0,0,0,0,0,0,0,0,0,0,0,0,0,0,0,0,0,0,0,0,0,0,0,0,0,0,0,0,0,0,0,0,0,0,0,0,0,0,0,0,0,0,0,0,0,0],"split_type":[0,0,0,0,0,0,0,0,0,0,0,0,0,0,0,0,0,0,0,0,0,0,0,0,0,0,0,0,0,0,0,0,0,0,0,0,0,0,0,0,0,0,0,0,0,0,0,0,0,0,0,0,0,0,0,0,0,0,0,0,0,0,0,0,0,0,0,0,0,0,0,0,0,0,0,0,0,0,0,0,0,0,0,0,0,0,0,0,0,0,0,0,0,0,0,0,0,0,0,0,0,0,0,0,0,0,0,0,0,0,0,0,0,0,0,0,0,0,0,0,0,0,0,0,0,0,0,0,0,0,0,0,0,0,0,0,0,0,0,0,0],"sum_hessian":[6.343E3,5.666E3,6.77E2,3.218E3,2.448E3,4.88E2,1.89E2,4.66E2,2.752E3,1.264E3,1.184E3,2.3E2,2.58E2,6.5E1,1.24E2,1.18E2,3.48E2,2.524E3,2.28E2,6.8E2,5.84E2,5.72E2,6.12E2,6.7E1,1.63E2,1.33E2,1.25E2,8E0,5.7E1,4.3E1,8.1E1,6E1,5.8E1,1.78E2,1.7E2,1.186E3,1.338E3,1.51E2,7.7E1,2.75E2,4.05E2,6.9E1,5.15E2,2.22E2,3.5E2,4.8E2,1.32E2,2E1,4.7E1,1.47E2,1.6E1,4.3E1,9E1,5E0,1.2E2,2.5E1,3.2E1,6.5E1,1.6E1,3.8E1,2E1,8.5E1,9.3E1,5.96E2,5.9E2,9.24E2,4.14E2,3.3E1,1.18E2,6.1E1,1.6E1,9.9E1,1.76E2,1.74E2,2.31E2,4.71E2,4.4E1,5.1E1,1.71E2,7.3E1,2.77E2,4.23E2,5.7E1,1.25E2,7E0,2.4E1,2.3E1,1.02E2,4.5E1,3.5E1,8E0,4.2E1,7.8E1,5E0,2.7E1,5.2E1,1.3E1,1.5E1,2.3E1,3.78E2,2.18E2,2.65E2,3.25E2,9.06E2,1.8E1,2.4E2,1.74E2,6.2E1,5.6E1,1.4E1,4.7E1,9E0,7E0,4.9E1,5E1,1.63E2,1.3E1,1.12E2,6.2E1,1.08E2,1.23E2,4.6E1,5E0,1.14E2,5.7E1,5.3E1,2E1,1.81E2,9.6E1,3.74E2,4.9E1,1.9E1,3.8E1,3.1E1,9.4E1,8.3E1,1.9E1,7E0,2.8E1,7E0,2E1],"tree_param":{"num_deleted":"0","num_feature":"10","num_nodes":"141","size_leaf_vector":"1"}},{"base_weights":[-6.5315933E0,-2.1727016E2,1.8528788E3,-5.26895E2,2.7831375E2,1.0628967E3,3.9035422E3,-6.0114215E2,-2.4452278E2,7.570335E2,-2.285629E2,6.069725E2,1.2940586E3,1.2801243E3,5.2488677E3,-7.3606335E2,-4.785959E2,-7.648844E2,3.39896E2,2.982987E2,1.3046088E3,-7.2982465E2,2.5554869E2,3.3705643E2,7.9490155E2,1.7225782E3,5.953923E2,1.4720691E2,9.790826E2,3.4155978E2,4.3176123E3,-4.8645267E2,-8.8902673E2,-5.689508E2,-3.3755722E2,-5.30415E2,-8.45832E2,5.305217E2,2.3974805E2,-2.0992938E2,9.214545E2,1.7931066E3,9.9186066E2,-4.6164772E1,-3.504184E1,3.2710364E2,-2.3160913E2,9.911147E0,2.0026281E1,4.3202618E1,2.4005058E1,8.79096E2,2.4197307E3,-1.8596976E0,6.2931006E2,7.342158E1,5.3865576E2,2.3094864E2,1.536605E2,-6.577411E2,-1.4705981E2,-7.0661945E2,-9.60715E2,-5.8471936E2,3.856571E2,-8.1426556E2,-2.3706741E2,-3.711967E1,-3.2824167E2,-9.6090265E2,-3.586128E1,6.127584E2,4.2518228E2,3.2502023E2,1.12471E2,1.9398813E2,-4.1544308E2,1.3263401E3,-2.226291E2,1.8874958E3,1.5248475E3,8.598698E2,1.4415449E3,3.8700177E2,-1.258341E2,-1.0409174E2,-1.8989157E1,4.293671E2,1.615633E3,5.3859577E1,1.3441008E2,2.5482267E1,3.427448E1,-4.0498037E0,8.080778E2,-2.062622E1,-3.975529E1,-2.0411975E0,-2.1627365E1,-3.0901443E1,-3.957048E1,-5.9538662E1,-4.5898067E1,-3.19513E1,-2.4005205E1,9.001446E1,-2.5084389E1,-4.282159E1,-3.1884872E1,-5.567641E-1,-2.540671E1,-7.8905206E0,-3.3016846E1,-5.006157E1,-3.171976E1,3.3404232E1,2.1712666E1,1.4788691E1,2.4263264E1,1.1854405E1,1.8591003E1,2.4741547E0,1.6995136E1,3.2176273E1,-7.475484E0,-2.4134293E1,2.7834775E0,9.268035E1,5.332206E1,3.8985708E0,-2.0570107E1,7.525121E1,1.0238815E2,5.547536E1,8.681548E1,5.316164E1,3.055521E1,8.394681E1,1.8602789E1,1.6363655E1,3.7244427E1,-1.4449722E1,-3.4892876E0,-7.120646E0,1.9734579E0,6.990676E1,3.6577718E0,5.192575E1,1.08195694E2,4.7194267E1,2.3470251E1],"categories":[],"categories_nodes":[],"categories_segments":[],"categories_sizes":[],"default_left":[0,0,0,0,0,0,0,0,0,0,0,0,0,0,0,0,0,0,0,0,0,0,0,0,0,0,0,0,0,0,0,0,0,0,0,0,0,0,0,0,0,0,0,0,0,0,0,0,0,0,0,0,0,0,0,0,0,0,0,0,0,0,0,0,0,0,0,0,0,0,0,0,0,0,0,0,0,0,0,0,0,0,0,0,0,0,0,0,0,0,0,0,0,0,0,0,0,0,0,0,0,0,0,0,0,0,0,0,0,0,0,0,0,0,0,0,0,0,0,0,0,0,0,0,0,0,0,0,0,0,0,0,0,0,0,0,0,0,0,0,0,0,0,0,0,0,0,0,0,0,0],"id":1,"left_children":[1,3,5,7,9,11,13,15,17,19,21,23,25,27,29,31,33,35,37,39,41,43,45,47,49,51,53,-1,55,-1,57,59,61,63,65,67,69,71,73,75,77,79,81,-1,-1,83,85,-1,-1,-1,-1,87,89,-1,91,-1,93,-1,-1,95,97,99,101,103,105,107,109,-1,111,113,-1,115,117,119,121,123,125,127,129,131,133,135,137,139,141,143,-1,145,147,-1,-1,-1,-1,-1,149,-1,-1,-1,-1,-1,-1,-1,-1,-1,-1,-1,-1,-1,-1,-1,-1,-1,-1,-1,-1,-1,-1,-1,-1,-1,-1,-1,-1,-1,-1,-1,-1,-1,-1,-1,-1,-1,-1,-1,-1,-1,-1,-1,-1,-1,-1,-1,-1,-1,-1,-1,-1,-1,-1,-1,-1],"loss_changes":[2.482769E9,8.7340275E8,1.0407432E9,7.329453E7,5.3133805E8,4.843277E7,6.250345E8,4.549677E7,2.2256373E8,2.8245286E8,2.583838E8,7.797364E6,9.148666E7,2.8175576E7,1.4438477E8,4.9890496E7,1.836256E7,6.896512E6,6.459128E6,1.946505E8,7.659597E7,2.28608E6,1.8969104E7,5.109875E5,1.609648E6,1.1018765E8,2.576664E6,0E0,1.0847228E7,0E0,1.4681088E7,2.9144728E7,9.991552E6,1.356224E7,2.716034E7,4.127666E6,3.54328E6,7.61674E5,2.437973E6,2.8221178E7,1.2814483E8,2.160704E6,1.7457056E7,0E0,0E0,1.2881244E7,1.283101E6,0E0,0E0,0E0,0E0,2.84556E7,3.458931E7,0E0,4.10308E5,0E0,5.073887E6,0E0,0E0,1.0922512E7,5.1382735E6,1.2686E6,4.641216E6,4.647296E6,1.9732178E7,1.90932E5,2.8962134E7,0E0,2.952161E6,1.313632E6,0E0,3.41948E5,2.8411E5,4.71513E5,1.3154472E6,1.785395E7,7.15462E6,2.5978624E7,4.1744825E6,5.683616E6,3.079792E6,1.1795344E7,1.7147472E7,8.691428E6,4.9194512E5,2.2017634E5,0E0,1.9222564E7,8.19468E6,0E0,0E0,0E0,0E0,0E0,5.22817E5,0E0,0E0,0E0,0E0,0E0,0E0,0E0,0E0,0E0,0E0,0E0,0E0,0E0,0E0,0E0,0E0,0E0,0E0,0E0,0E0,0E0,0E0,0E0,0E0,0E0,0E0,0E0,0E0,0E0,0E0,0E0,0E0,0E0,0E0,0E0,0E0,0E0,0E0,0E0,0E0,0E0,0E0,0E0,0E0,0E0,0E0,0E0,0E0,0E0,0E0,0E0,0E0,0E0,0E0,0E0,0E0],"parents":[2147483647,0,0,1,1,2,2,3,3,4,4,5,5,6,6,7,7,8,8,9,9,10,10,11,11,12,12,13,13,14,14,15,15,16,16,17,17,18,18,19,19,20,20,21,21,22,22,23,23,24,24,25,25,26,26,28,28,30,30,31,31,32,32,33,33,34,34,35,35,36,36,37,37,38,38,39,39,40,40,41,41,42,42,45,45,46,46,51,51,52,52,54,54,56,56,59,59,60,60,61,61,62,62,63,63,64,64,65,65,66,66,68,68,69,69,71,71,72,72,73,73,74,74,75,75,76,76,77,77,78,78,79,79,80,80,81,81,82,82,83,83,84,84,85,85,87,87,88,88,94,94],"right_children":[2,4,6,8,10,12,14,16,18,20,22,24,26,28,30,32,34,36,38,40,42,44,46,48,50,52,54,-1,56,-1,58,60,62,64,66,68,70,72,74,76,78,80,82,-1,-1,84,86,-1,-1,-1,-1,88,90,-1,92,-1,94,-1,-1,96,98,100,102,104,106,108,110,-1,112,114,-1,116,118,120,122,124,126,128,130,132,134,136,138,140,142,144,-1,146,148,-1,-1,-1,-1,-1,150,-1,-1,-1,-1,-1,-1,-1,-1,-1,-1,-1,-1,-1,-1,-1,-1,-1,-1,-1,-1,-1,-1,-1,-1,-1,-1,-1,-1,-1,-1,-1,-1,-1,-1,-1,-1,-1,-1,-1,-1,-1,-1,-1,-1,-1,-1,-1,-1,-1,-1,-1,-1,-1,-1,-1,-1],"split_conditions":[2E0,2.25E2,2E3,1.83E2,1E0,4E2,1.83E2,1E0,2.024E3,2.024E3,2.024E3,2E2,4E0,2E0,3E0,7.7E1,1.12E2,2E0,3E0,2.97E2,3E0,1E0,3.51E2,8E0,2.55E2,1.86E2,4E0,1.4720691E2,3E0,3.4155978E2,4E0,2.025E3,2E0,1.315E3,2.024E3,1E0,1E0,1E0,1.101E3,3E0,3.48E2,2.1E3,3.15E2,-4.6164772E1,-3.504184E1,4E0,3.6E2,9.911147E0,2.0026281E1,4.3202618E1,2.4005058E1,4E0,2E0,-1.8596976E0,1.3E3,7.342158E1,1.71E2,2.3094864E2,1.536605E2,3E0,6.7E1,2.025E3,2.024E3,8E2,4E0,8.5E2,2.025E3,-3.711967E1,1E0,2.19E2,-3.586128E1,1.801E3,1E0,4.5E2,2.3E3,1.05E3,3.5E3,2E0,3.54E2,2.57E2,3.07E2,2.74E2,4E0,1.5E3,2.59E2,1.315E3,-1.8989157E1,2E0,2E0,5.3859577E1,1.3441008E2,2.5482267E1,3.427448E1,-4.0498037E0,4E0,-2.062622E1,-3.975529E1,-2.0411975E0,-2.1627365E1,-3.0901443E1,-3.957048E1,-5.9538662E1,-4.5898067E1,-3.19513E1,-2.4005205E1,9.001446E1,-2.5084389E1,-4.282159E1,-3.1884872E1,-5.567641E-1,-2.540671E1,-7.8905206E0,-3.3016846E1,-5.006157E1,-3.171976E1,3.3404232E1,2.1712666E1,1.4788691E1,2.4263264E1,1.1854405E1,1.8591003E1,2.4741547E0,1.6995136E1,3.2176273E1,-7.475484E0,-2.4134293E1,2.7834775E0,9.268035E1,5.332206E1,3.8985708E0,-2.0570107E1,7.525121E1,1.0238815E2,5.547536E1,8.681548E1,5.316164E1,3.055521E1,8.394681E1,1.8602789E1,1.6363655E1,3.7244427E1,-1.4449722E1,-3.4892876E0,-7.120646E0,1.9734579E0,6.990676E1,3.6577718E0,5.192575E1,1.08195694E2,4.7194267E1,2.3470251E1],"split_indices":[0,4,9,4,0,9,4,0,3,3,3,9,1,1,1,4,4,1,1,4,1,1,4,2,9,4,0,0,0,0,1,3,1,9,3,1,0,0,9,1,4,9,4,0,0,1,4,0,0,0,0,0,1,0,9,0,4,0,0,1,4,3,3,9,1,9,3,0,0,4,0,9,1,9,9,9,9,1,4,4,4,4,1,9,4,9,0,1,1,0,0,0,0,0,1,0,0,0,0,0,0,0,0,0,0,0,0,0,0,0,0,0,0,0,0,0,0,0,0,0,0,0,0,0,0,0,0,0,0,0,0,0,0,0,0,0,0,0,0,0,0,0,0,0,0,0,0,0,0,0,0],"split_type":[0,0,0,0,0,0,0,0,0,0,0,0,0,0,0,0,0,0,0,0,0,0,0,0,0,0,0,0,0,0,0,0,0,0,0,0,0,0,0,0,0,0,0,0,0,0,0,0,0,0,0,0,0,0,0,0,0,0,0,0,0,0,0,0,0,0,0,0,0,0,0,0,0,0,0,0,0,0,0,0,0,0,0,0,0,0,0,0,0,0,0,0,0,0,0,0,0,0,0,0,0,0,0,0,0,0,0,0,0,0,0,0,0,0,0,0,0,0,0,0,0,0,0,0,0,0,0,0,0,0,0,0,0,0,0,0,0,0,0,0,0,0,0,0,0,0,0,0,0,0,0],"sum_hessian":[6.334E3,5.69E3,6.44E2,3.502E3,2.188E3,4.66E2,1.78E2,2.772E3,7.3E2,1.125E3,1.063E3,1.58E2,3.08E2,6.1E1,1.17E2,1.317E3,1.455E3,3.86E2,3.44E2,6.13E2,5.12E2,5.22E2,5.41E2,6.6E1,9.2E1,1.9E2,1.18E2,8E0,5.3E1,4.1E1,7.6E1,5.02E2,8.15E2,8.85E2,5.7E2,1.01E2,2.85E2,1.17E2,2.27E2,3.38E2,2.75E2,1.98E2,3.14E2,6.4E1,4.58E2,4.72E2,6.9E1,2.2E1,4.4E1,7.4E1,1.8E1,8.7E1,1.03E2,6E0,1.12E2,2.4E1,2.9E1,5.9E1,1.7E1,3.33E2,1.69E2,2.33E2,5.82E2,8.71E2,1.4E1,9.8E1,4.72E2,4.8E1,5.3E1,1.47E2,1.38E2,6.3E1,5.4E1,1.35E2,9.2E1,1.14E2,2.24E2,2.03E2,7.2E1,1.42E2,5.6E1,2.45E2,6.9E1,4.17E2,5.5E1,3.8E1,3.1E1,5.5E1,3.2E1,1.8E1,8.5E1,3.9E1,7.3E1,9E0,2E1,1.21E2,2.12E2,1.24E2,4.5E1,1.18E2,1.15E2,8.7E1,4.95E2,5.7E2,3.01E2,5E0,9E0,7.6E1,2.2E1,2.58E2,2.14E2,3.6E1,1.7E1,1.29E2,1.8E1,4.6E1,1.7E1,1.9E1,3.5E1,4.9E1,8.6E1,7.3E1,1.9E1,4.9E1,6.5E1,1.96E2,2.8E1,6.5E1,1.38E2,2.8E1,4.4E1,4.5E1,9.7E1,2.1E1,3.5E1,1.33E2,1.12E2,5.6E1,1.3E1,3.59E2,5.8E1,1.3E1,4.2E1,3E1,8E0,1.4E1,4.1E1,1.7E1,1.5E1,1.3E1,7E0],"tree_param":{"num_deleted":"0","num_feature":"10","num_nodes":"151","size_leaf_vector":"1"}},{"base_weights":[1.1097649E1,-1.8143042E2,1.3411237E3,-5.211484E2,1.4693538E2,2.0198009E3,3.0382974E2,-6.192251E2,-4.5560406E2,-1.3317502E2,5.494051E2,3.5894277E3,1.150264E3,-4.6804556E2,9.694876E2,-3.5519742E2,-7.0636224E2,-2.6653635E2,-5.239016E2,-3.7352362E2,3.5482263E2,9.907858E2,4.254229E2,4.368283E3,5.4737866E2,1.1887917E3,-8.563122E0,-8.220462E2,-2.2136275E2,7.6807745E2,1.4997603E2,-4.8189566E2,-1.5462749E2,-6.8053345E2,-8.552457E2,-4.7554117E2,-1.2017155E2,-5.9065576E2,-3.7858804E2,-5.9077507E1,-5.502051E2,4.0352814E2,-1.3543254E2,3.9313058E2,1.4179137E3,4.8320966E2,-3.481508E2,7.241348E2,5.0274395E3,1.3875177E2,1.11021996E2,8.519467E2,1.362294E3,5.4902935E0,-6.275246E0,-5.0515884E1,-3.653111E1,-4.4428073E2,-1.7449608E1,1.0815171E3,3.873768E2,-2.9799875E2,-5.483737E2,3.4580727E1,-2.843185E2,-8.132904E2,-6.5313214E2,-3.1100153E1,-9.698208E2,-4.5066357E1,-4.0971667E2,1.3026279E2,-2.3064424E2,-4.2994043E2,-6.2865137E2,-5.6205493E2,-2.4427069E2,-8.059998E2,2.3521274E2,-6.398642E2,-3.5740366E2,5.906468E2,2.4976541E2,8.455541E0,-2.1663382E2,-3.6795325E2,5.635736E2,1.0712721E3,2.06204E3,1.9142265E2,6.898736E2,-4.6049982E2,1.6770752E2,6.507599E1,4.777557E2,3.0966684E2,4.13052E3,3.4535574E2,-1.9993384E2,4.5384726E2,4.919659E1,8.386785E1,1.1754296E3,-9.339828E0,-2.4522026E1,-3.4283905E2,2.008696E1,4.487975E2,6.476716E1,1.477843E2,6.3643787E2,-2.6048956E1,-6.0895553E0,-2.8076944E1,-1.4693423E1,-9.485604E0,8.476174E0,-1.19450865E1,-2.6513723E1,-4.1686245E1,-2.1788198E1,-3.3257584E1,-2.2313963E1,-5.1123074E1,-2.3216658E1,-2.894629E1,-9.678043E0,1.8515783E1,-6.272029E0,-2.1502085E1,7.9428215E0,-2.5082243E1,6.2405043E0,-3.0716085E1,-4.2608288E1,-3.9320576E1,-8.423024E0,-1.9147776E1,2.6082923E0,-4.3181263E1,-3.347692E1,-6.1423635E-1,1.8586859E1,-3.961898E1,-2.8394693E1,-1.5924085E1,-3.6202194E1,2.2585476E1,3.489649E1,1.3153296E1,-1.9408398E1,2.2926958E0,-4.0108294E0,-1.6921083E1,-8.449819E0,-1.0622542E1,-2.02812E1,2.2831392E1,5.9696632E1,3.2012638E1,6.468615E1,1.2054983E2,8.631047E1,6.072466E-1,1.7465761E1,3.9768692E1,1.1298594E1,-2.9952368E1,-1.5501404E1,2.3473711E1,-5.745393E0,-7.3177104E0,3.7499886E1,1.7208699E2,2.469065E2,1.0497647E1,2.1237194E1,-1.7870516E1,8.555501E-1,8.455283E0,6.41957E1,5.1141888E1,8.173577E1,-2.2785786E1,-1.0273696E1,4.5686617E0,6.2635693E1,2.0076962E1,3.8765965E0,4.107858E1,1.6741074E1],"categories":[],"categories_nodes":[],"categories_segments":[],"categories_sizes":[],"default_left":[0,0,0,0,0,0,0,0,0,0,0,0,0,0,0,0,0,0,0,0,0,0,0,0,0,0,0,0,0,0,0,0,0,0,0,0,0,0,0,0,0,0,0,0,0,0,0,0,0,0,0,0,0,0,0,0,0,0,0,0,0,0,0,0,0,0,0,0,0,0,0,0,0,0,0,0,0,0,0,0,0,0,0,0,0,0,0,0,0,0,0,0,0,0,0,0,0,0,0,0,0,0,0,0,0,0,0,0,0,0,0,0,0,0,0,0,0,0,0,0,0,0,0,0,0,0,0,0,0,0,0,0,0,0,0,0,0,0,0,0,0,0,0,0,0,0,0,0,0,0,0,0,0,0,0,0,0,0,0,0,0,0,0,0,0,0,0,0,0,0,0,0,0,0,0,0,0,0,0,0,0,0,0,0,0,0,0,0,0,0,0],"id":2,"left_children":[1,3,5,7,9,11,13,15,17,19,21,23,25,27,29,31,33,35,37,39,41,43,45,47,49,51,53,55,57,59,-1,61,63,65,67,69,71,73,75,77,79,81,83,85,87,89,91,93,95,97,-1,99,101,-1,-1,-1,-1,103,105,107,109,111,113,115,117,119,121,-1,123,-1,125,127,129,131,133,135,137,139,141,143,145,147,149,151,153,155,157,159,161,163,165,167,169,-1,171,-1,173,175,177,179,-1,-1,181,-1,-1,183,-1,185,-1,187,189,-1,-1,-1,-1,-1,-1,-1,-1,-1,-1,-1,-1,-1,-1,-1,-1,-1,-1,-1,-1,-1,-1,-1,-1,-1,-1,-1,-1,-1,-1,-1,-1,-1,-1,-1,-1,-1,-1,-1,-1,-1,-1,-1,-1,-1,-1,-1,-1,-1,-1,-1,-1,-1,-1,-1,-1,-1,-1,-1,-1,-1,-1,-1,-1,-1,-1,-1,-1,-1,-1,-1,-1,-1,-1,-1,-1,-1,-1,-1,-1],"loss_changes":[1.611931E9,6.134997E8,5.5976064E8,1.709376E7,3.1539562E8,6.5236326E8,1.6281611E8,2.4596256E7,2.0830848E7,1.9366032E8,6.240093E7,4.02762E8,1.3895328E7,1.2654936E7,6.72039E7,6.786688E6,2.536672E6,1.3188734E7,1.1339136E7,6.141331E7,1.3068224E7,6.3516624E7,4.031091E7,3.2303974E8,2.4303592E7,1.6430816E7,1.660463E5,2.94592E5,3.992367E6,1.8196008E7,0E0,1.853728E6,2.6109245E6,2.00064E6,2.496728E6,4.619548E6,7.112581E6,4.706496E6,9.17768E6,8.789454E7,1.2010112E7,1.4123328E7,5.8602656E5,1.3957843E7,3.0390016E7,5.028029E7,3.728469E6,2.507815E6,9.467571E7,2.168262E6,0E0,5.07048E6,9.62656E6,0E0,0E0,0E0,0E0,4.075755E5,6.548514E6,1.0918472E7,4.202412E6,1.7439285E6,2.37056E5,1.3638951E6,5.770595E5,5.23864E5,1.15016E6,0E0,1.547544E6,0E0,5.593724E6,4.8956565E6,1.3892763E7,6.38732E6,1.580784E6,1.3908092E7,9.06445E6,3.10368E5,9.702141E6,4.84072E6,3.008776E6,3.00868E6,2.426956E6,6.668593E4,1.28461125E5,3.0983E4,5.319858E6,8.47212E6,1.697632E6,9.846461E6,2.3752768E7,8.98348E5,1.0773532E6,0E0,2.9982175E6,0E0,2.0830336E7,1.1506175E5,4.162691E5,6.40081E6,0E0,0E0,7.228512E6,0E0,0E0,3.2500575E5,0E0,6.4943375E6,0E0,6.462894E5,1.679298E6,0E0,0E0,0E0,0E0,0E0,0E0,0E0,0E0,0E0,0E0,0E0,0E0,0E0,0E0,0E0,0E0,0E0,0E0,0E0,0E0,0E0,0E0,0E0,0E0,0E0,0E0,0E0,0E0,0E0,0E0,0E0,0E0,0E0,0E0,0E0,0E0,0E0,0E0,0E0,0E0,0E0,0E0,0E0,0E0,0E0,0E0,0E0,0E0,0E0,0E0,0E0,0E0,0E0,0E0,0E0,0E0,0E0,0E0,0E0,0E0,0E0,0E0,0E0,0E0,0E0,0E0,0E0,0E0,0E0,0E0,0E0,0E0,0E0,0E0,0E0,0E0,0E0,0E0,0E0,0E0],"parents":[2147483647,0,0,1,1,2,2,3,3,4,4,5,5,6,6,7,7,8,8,9,9,10,10,11,11,12,12,13,13,14,14,15,15,16,16,17,17,18,18,19,19,20,20,21,21,22,22,23,23,24,24,25,25,26,26,27,27,28,28,29,29,31,31,32,32,33,33,34,34,35,35,36,36,37,37,38,38,39,39,40,40,41,41,42,42,43,43,44,44,45,45,46,46,47,47,48,48,49,49,51,51,52,52,57,57,58,58,59,59,60,60,61,61,62,62,63,63,64,64,65,65,66,66,68,68,70,70,71,71,72,72,73,73,74,74,75,75,76,76,77,77,78,78,79,79,80,80,81,81,82,82,83,83,84,84,85,85,86,86,87,87,88,88,89,89,90,90,91,91,92,92,94,94,96,96,97,97,98,98,99,99,102,102,105,105,107,107,109,109,110,110],"right_children":[2,4,6,8,10,12,14,16,18,20,22,24,26,28,30,32,34,36,38,40,42,44,46,48,50,52,54,56,58,60,-1,62,64,66,68,70,72,74,76,78,80,82,84,86,88,90,92,94,96,98,-1,100,102,-1,-1,-1,-1,104,106,108,110,112,114,116,118,120,122,-1,124,-1,126,128,130,132,134,136,138,140,142,144,146,148,150,152,154,156,158,160,162,164,166,168,170,-1,172,-1,174,176,178,180,-1,-1,182,-1,-1,184,-1,186,-1,188,190,-1,-1,-1,-1,-1,-1,-1,-1,-1,-1,-1,-1,-1,-1,-1,-1,-1,-1,-1,-1,-1,-1,-1,-1,-1,-1,-1,-1,-1,-1,-1,-1,-1,-1,-1,-1,-1,-1,-1,-1,-1,-1,-1,-1,-1,-1,-1,-1,-1,-1,-1,-1,-1,-1,-1,-1,-1,-1,-1,-1,-1,-1,-1,-1,-1,-1,-1,-1,-1,-1,-1,-1,-1,-1,-1,-1,-1,-1,-1,-1],"split_conditions":[2E3,1.75E2,4E0,2E0,1E3,2.19E2,3.5E3,7E1,2E0,2.024E3,2E0,2.024E3,3.46E2,2.5E3,8.5E3,9.5E2,1.05E3,1E0,1.27E2,2E0,3.44E2,1E0,3.51E2,1.77E2,6E0,3.02E2,2.1E3,2.024E3,2.024E3,4E0,1.4997603E2,5.5E2,3E0,4.5E2,9.6E1,2.024E3,3.4E1,1.7E1,2.024E3,1E0,7E2,3E0,3.54E2,2.63E2,2.94E2,2.48E2,1.501E3,2E0,3E0,3E0,1.11021996E2,2.024E3,3E0,5.4902935E0,-6.275246E0,-5.0515884E1,-3.653111E1,2.3E2,1.61E2,2.024E3,3.03E2,4.8E1,4E0,1E0,1.63E3,4E0,4E0,-3.1100153E1,1.501E3,-4.5066357E1,8.7E1,4.5E2,1.51E2,1.501E3,1.63E3,9.61E2,1.56E2,5.5E2,2.25E2,2.24E2,4E0,2.36E2,4E0,8.5E2,1E0,1.101E3,1.63E3,2.024E3,3.12E2,2.12E2,4E0,2.024E3,1.675E3,6.507599E1,1.71E2,3.0966684E2,2.03E2,1.49E2,5.3E1,2.96E2,4.919659E1,8.386785E1,3.5E3,-9.339828E0,-2.4522026E1,2.025E3,2.008696E1,4.9E3,6.476716E1,2.82E2,2.024E3,-2.6048956E1,-6.0895553E0,-2.8076944E1,-1.4693423E1,-9.485604E0,8.476174E0,-1.19450865E1,-2.6513723E1,-4.1686245E1,-2.1788198E1,-3.3257584E1,-2.2313963E1,-5.1123074E1,-2.3216658E1,-2.894629E1,-9.678043E0,1.8515783E1,-6.272029E0,-2.1502085E1,7.9428215E0,-2.5082243E1,6.2405043E0,-3.0716085E1,-4.2608288E1,-3.9320576E1,-8.423024E0,-1.9147776E1,2.6082923E0,-4.3181263E1,-3.347692E1,-6.1423635E-1,1.8586859E1,-3.961898E1,-2.8394693E1,-1.5924085E1,-3.6202194E1,2.2585476E1,3.489649E1,1.3153296E1,-1.9408398E1,2.2926958E0,-4.0108294E0,-1.6921083E1,-8.449819E0,-1.0622542E1,-2.02812E1,2.2831392E1,5.9696632E1,3.2012638E1,6.468615E1,1.2054983E2,8.631047E1,6.072466E-1,1.7465761E1,3.9768692E1,1.1298594E1,-2.9952368E1,-1.5501404E1,2.3473711E1,-5.745393E0,-7.3177104E0,3.7499886E1,1.7208699E2,2.469065E2,1.0497647E1,2.1237194E1,-1.7870516E1,8.555501E-1,8.455283E0,6.41957E1,5.1141888E1,8.173577E1,-2.2785786E1,-1.0273696E1,4.5686617E0,6.2635693E1,2.0076962E1,3.8765965E0,4.107858E1,1.6741074E1],"split_indices":[9,4,1,8,9,4,9,4,1,3,1,3,4,9,9,9,9,1,4,1,4,1,4,4,5,4,9,3,3,6,0,9,1,9,4,3,4,4,3,1,9,1,4,4,4,4,9,1,1,1,0,3,1,0,0,0,0,4,4,3,4,4,1,1,9,1,1,0,9,0,4,9,4,9,9,9,4,9,4,4,1,4,1,9,1,9,9,3,4,4,1,3,9,0,4,0,4,4,4,4,0,0,9,0,0,3,0,9,0,4,3,0,0,0,0,0,0,0,0,0,0,0,0,0,0,0,0,0,0,0,0,0,0,0,0,0,0,0,0,0,0,0,0,0,0,0,0,0,0,0,0,0,0,0,0,0,0,0,0,0,0,0,0,0,0,0,0,0,0,0,0,0,0,0,0,0,0,0,0,0,0,0,0,0,0,0,0,0,0,0,0],"split_type":[0,0,0,0,0,0,0,0,0,0,0,0,0,0,0,0,0,0,0,0,0,0,0,0,0,0,0,0,0,0,0,0,0,0,0,0,0,0,0,0,0,0,0,0,0,0,0,0,0,0,0,0,0,0,0,0,0,0,0,0,0,0,0,0,0,0,0,0,0,0,0,0,0,0,0,0,0,0,0,0,0,0,0,0,0,0,0,0,0,0,0,0,0,0,0,0,0,0,0,0,0,0,0,0,0,0,0,0,0,0,0,0,0,0,0,0,0,0,0,0,0,0,0,0,0,0,0,0,0,0,0,0,0,0,0,0,0,0,0,0,0,0,0,0,0,0,0,0,0,0,0,0,0,0,0,0,0,0,0,0,0,0,0,0,0,0,0,0,0,0,0,0,0,0,0,0,0,0,0,0,0,0,0,0,0,0,0,0,0,0,0],"sum_hessian":[6.293E3,5.498E3,7.95E2,2.702E3,2.796E3,4.8E2,3.15E2,1.079E3,1.623E3,1.649E3,1.147E3,1.7E2,3.1E2,1.46E2,1.69E2,2.69E2,8.1E2,4.32E2,1.191E3,1.105E3,5.44E2,2.5E2,8.97E2,1.35E2,3.5E1,3E2,1E1,5.9E1,8.7E1,1.55E2,1.4E1,1.64E2,1.05E2,6.95E2,1.15E2,1.77E2,2.55E2,8.14E2,3.77E2,3.98E2,7.07E2,4.95E2,4.9E1,1.05E2,1.45E2,8.35E2,6.2E1,2.1E1,1.14E2,2.9E1,6E0,1.04E2,1.96E2,5E0,5E0,1.6E1,4.3E1,4.1E1,4.6E1,8.4E1,7.1E1,4.5E1,1.19E2,4.3E1,6.2E1,1.14E2,5.81E2,4E1,7.5E1,2.2E1,1.55E2,7.8E1,1.77E2,1.58E2,6.56E2,1.58E2,2.19E2,1.12E2,2.86E2,4.81E2,2.26E2,2.22E2,2.73E2,1.8E1,3.1E1,1.9E1,8.6E1,9.6E1,4.9E1,3.47E2,4.88E2,5.1E1,1.1E1,5E0,1.6E1,4.7E1,6.7E1,1.8E1,1.1E1,2.7E1,7.7E1,7E1,1.26E2,7E0,3.4E1,2.6E1,2E1,2.2E1,6.2E1,3.7E1,3.4E1,1.9E1,2.6E1,1.12E2,7E0,1.6E1,2.7E1,5.4E1,8E0,1.07E2,7E0,5.47E2,3.4E1,6.7E1,8E0,8.6E1,6.9E1,4E1,3.8E1,1.17E2,6E1,1.4E2,1.8E1,6.2E2,3.6E1,1E2,5.8E1,1.49E2,7E1,7.5E1,3.7E1,1.02E2,1.84E2,1.51E2,3.3E2,2.06E2,2E1,9.9E1,1.23E2,2.68E2,5E0,1.3E1,5E0,7E0,2.4E1,5E0,1.4E1,7.5E1,1.1E1,3.4E1,6.2E1,2.1E1,2.8E1,1.63E2,1.84E2,3.97E2,9.1E1,2.5E1,2.6E1,5E0,6E0,5E0,1.1E1,3.9E1,2.8E1,8E0,1E1,6E0,5E0,2.1E1,6E0,9.7E1,2.9E1,1.3E1,1.3E1,1.6E1,6E0,7E0,3E1,2E1,1.4E1],"tree_param":{"num_deleted":"0","num_feature":"10","num_nodes":"191","size_leaf_vector":"1"}},{"base_weights":[6.7807207E0,-1.8802159E2,1.7109117E3,-4.8107047E2,2.6334534E2,2.7478286E3,1.0614674E3,-7.713414E2,-4.2083362E2,7.168067E2,-2.1646509E2,7.558471E2,4.477541E3,3.809477E1,1.1115054E3,-9.096403E2,-7.1758746E2,-5.309251E2,2.7051315E2,2.77228E2,1.1987803E3,-3.35023E1,2.1135349E2,5.221777E2,1.4388491E3,1.5675636E2,2.3809447E2,1.1605432E3,3.7404716E1,-5.2453266E1,-3.7286343E1,-7.387793E2,-2.893363E1,-6.430742E2,-4.287077E2,1.13037605E2,2.8924786E2,-2.5374475E2,7.796249E2,1.0932644E3,7.487971E1,2.85788E2,-2.1537993E2,6.631843E1,1.247825E2,8.194167E1,5.333253E1,1.0184824E3,6.366682E1,-3.9519794E1,-6.7728064E2,-4.3295248E2,-7.8949475E2,-5.2019165E2,-3.0994446E2,1.4727396E2,1.5799953E0,2.8384888E2,3.898222E2,-3.234307E2,-1.4111179E2,1.0810822E3,-1.6729718E2,1.2257303E3,8.784239E2,2.9047614E2,1.9839722E0,-3.1280657E1,-3.035835E2,-2.1973056E2,6.507075E2,4.145689E1,5.26829E1,-3.6046383E1,-2.974676E1,-2.986526E1,-6.2574496E0,-3.4833878E1,-4.346989E1,-2.7000807E1,-1.5590441E1,-5.2782464E0,-2.3868246E1,5.068215E0,1.0867876E1,1.5657779E1,1.2950174E1,2.3285208E1,1.1828544E1,-1.5137334E1,-2.6469625E1,-1.2509418E0,-1.2538428E1,1.5446297E1,5.99026E1,1.8916311E1,-1.608376E1,3.3756664E1,6.610737E1,4.6499893E1,3.5943283E1,1.4860901E1,1.1054839E1,-6.448337E-1,-4.2295113E0,-1.03978815E1,-1.869964E1,-3.0851736E1,-1.3954111E0,4.236703E1,2.0957285E1],"categories":[],"categories_nodes":[],"categories_segments":[],"categories_sizes":[],"default_left":[0,0,0,0,0,0,0,0,0,0,0,0,0,0,0,0,0,0,0,0,0,0,0,0,0,0,0,0,0,0,0,0,0,0,0,0,0,0,0,0,0,0,0,0,0,0,0,0,0,0,0,0,0,0,0,0,0,0,0,0,0,0,0,0,0,0,0,0,0,0,0,0,0,0,0,0,0,0,0,0,0,0,0,0,0,0,0,0,0,0,0,0,0,0,0,0,0,0,0,0,0,0,0,0,0,0,0,0,0,0,0],"id":3,"left_children":[1,3,5,7,9,11,13,15,17,19,21,23,25,-1,27,29,31,33,35,37,39,-1,41,43,45,-1,-1,47,-1,-1,-1,49,-1,51,53,55,57,59,61,63,-1,65,67,-1,69,-1,-1,71,-1,-1,73,75,77,79,81,83,-1,85,87,89,91,93,95,97,99,101,-1,103,105,107,109,-1,-1,-1,-1,-1,-1,-1,-1,-1,-1,-1,-1,-1,-1,-1,-1,-1,-1,-1,-1,-1,-1,-1,-1,-1,-1,-1,-1,-1,-1,-1,-1,-1,-1,-1,-1,-1,-1,-1,-1],"loss_changes":[2.0807694E9,7.441599E8,4.300924E8,5.9316736E7,4.820849E8,8.47668E8,5.104224E6,3.696224E6,2.153105E8,2.4098214E8,2.0913384E8,1.776188E7,3.545677E7,0E0,5.155232E6,2.874272E6,8.26576E5,2.7683968E7,1.114952E6,1.59453E8,1.5483328E7,0E0,1.76904E7,2.7957672E7,4.10516E5,0E0,0E0,3.446112E6,0E0,0E0,0E0,6.26496E5,0E0,3.5377664E7,1.3735008E7,1.1523569E5,7.777E4,2.2384E6,8.7816E7,1.0449184E7,0E0,5.34216E5,1.338276E6,0E0,1.1014263E7,0E0,0E0,3.2176E4,0E0,0E0,1.96472E5,2.4157056E7,4.459712E6,2.810128E6,1.9077088E7,7.4493125E4,0E0,1.61358E5,6.4263E4,6.0229E5,1.4322588E6,2.067424E7,6.439116E6,1.2272896E7,6.31648E5,1.51324E5,0E0,2.6350254E4,2.992705E5,2.8026172E6,7.37627E5,0E0,0E0,0E0,0E0,0E0,0E0,0E0,0E0,0E0,0E0,0E0,0E0,0E0,0E0,0E0,0E0,0E0,0E0,0E0,0E0,0E0,0E0,0E0,0E0,0E0,0E0,0E0,0E0,0E0,0E0,0E0,0E0,0E0,0E0,0E0,0E0,0E0,0E0,0E0,0E0],"parents":[2147483647,0,0,1,1,2,2,3,3,4,4,5,5,6,6,7,7,8,8,9,9,10,10,11,11,12,12,14,14,15,15,16,16,17,17,18,18,19,19,20,20,22,22,23,23,24,24,27,27,31,31,33,33,34,34,35,35,36,36,37,37,38,38,39,39,41,41,42,42,44,44,47,47,50,50,51,51,52,52,53,53,54,54,55,55,57,57,58,58,59,59,60,60,61,61,62,62,63,63,64,64,65,65,67,67,68,68,69,69,70,70],"right_children":[2,4,6,8,10,12,14,16,18,20,22,24,26,-1,28,30,32,34,36,38,40,-1,42,44,46,-1,-1,48,-1,-1,-1,50,-1,52,54,56,58,60,62,64,-1,66,68,-1,70,-1,-1,72,-1,-1,74,76,78,80,82,84,-1,86,88,90,92,94,96,98,100,102,-1,104,106,108,110,-1,-1,-1,-1,-1,-1,-1,-1,-1,-1,-1,-1,-1,-1,-1,-1,-1,-1,-1,-1,-1,-1,-1,-1,-1,-1,-1,-1,-1,-1,-1,-1,-1,-1,-1,-1,-1,-1,-1,-1],"split_conditions":[2E0,2.25E2,4E0,2.024E3,1E0,1.83E2,1.67E2,1.77E2,1.63E2,2.024E3,2.024E3,1.75E2,1.91E2,3.809477E1,1.2E1,1E0,2.19E2,1E0,1.76E2,2.9E2,3.12E2,-3.35023E1,3.48E2,3E0,4E0,1.5675636E2,2.3809447E2,2.41E2,3.7404716E1,-5.2453266E1,-3.7286343E1,1E0,-2.893363E1,7.7E1,9.2E1,4E0,2.23E2,2.66E2,3.48E2,2.78E2,7.487971E1,3.46E2,3.54E2,6.631843E1,1.69E2,8.194167E1,5.333253E1,1E0,6.366682E1,-3.9519794E1,2.04E2,2.025E3,2.025E3,6E0,2.025E3,1.71E2,1.5799953E0,3E0,2.24E2,6E0,2.79E2,2.97E2,3.51E2,2.35E2,5E0,3.32E2,1.9839722E0,3.53E2,3.6E2,1.61E2,3E0,4.145689E1,5.26829E1,-3.6046383E1,-2.974676E1,-2.986526E1,-6.2574496E0,-3.4833878E1,-4.346989E1,-2.7000807E1,-1.5590441E1,-5.2782464E0,-2.3868246E1,5.068215E0,1.0867876E1,1.5657779E1,1.2950174E1,2.3285208E1,1.1828544E1,-1.5137334E1,-2.6469625E1,-1.2509418E0,-1.2538428E1,1.5446297E1,5.99026E1,1.8916311E1,-1.608376E1,3.3756664E1,6.610737E1,4.6499893E1,3.5943283E1,1.4860901E1,1.1054839E1,-6.448337E-1,-4.2295113E0,-1.03978815E1,-1.869964E1,-3.0851736E1,-1.3954111E0,4.236703E1,2.0957285E1],"split_indices":[0,4,0,3,0,4,4,4,4,3,3,4,4,0,2,0,4,0,4,4,4,0,4,0,5,0,0,4,0,0,0,0,0,4,4,5,4,4,4,4,0,4,4,0,4,0,0,5,0,0,4,3,3,5,3,4,0,5,4,5,4,4,4,4,5,4,0,4,4,4,5,0,0,0,0,0,0,0,0,0,0,0,0,0,0,0,0,0,0,0,0,0,0,0,0,0,0,0,0,0,0,0,0,0,0,0,0,0,0,0,0],"split_type":[0,0,0,0,0,0,0,0,0,0,0,0,0,0,0,0,0,0,0,0,0,0,0,0,0,0,0,0,0,0,0,0,0,0,0,0,0,0,0,0,0,0,0,0,0,0,0,0,0,0,0,0,0,0,0,0,0,0,0,0,0,0,0,0,0,0,0,0,0,0,0,0,0,0,0,0,0,0,0,0,0,0,0,0,0,0,0,0,0,0,0,0,0,0,0,0,0,0,0,0,0,0,0,0,0,0,0,0,0,0,0],"sum_hessian":[6.266E3,5.624E3,6.42E2,3.41E3,2.214E3,2.46E2,3.96E2,5.84E2,2.826E3,1.138E3,1.076E3,1.15E2,1.31E2,5.9E1,3.37E2,1.59E2,4.25E2,2.438E3,3.88E2,5.96E2,5.42E2,5.22E2,5.54E2,8.7E1,2.8E1,2.5E1,1.06E2,2.95E2,4.2E1,8.3E1,7.6E1,3.65E2,6E1,1.16E3,1.278E3,4.2E1,3.46E2,2.9E2,3.06E2,4.04E2,1.38E2,4.72E2,8.2E1,2.8E1,5.9E1,1.6E1,1.2E1,1.35E2,1.6E2,1.92E2,1.73E2,4.78E2,6.82E2,7.2E2,5.58E2,2.9E1,1.3E1,3.32E2,1.4E1,1.78E2,1.12E2,2.32E2,7.4E1,2.47E2,1.57E2,4.63E2,9E0,2.7E1,5.5E1,3.6E1,2.3E1,2.5E1,1.1E2,1.08E2,6.5E1,3.11E2,1.67E2,3.2E2,3.62E2,6.56E2,6.4E1,2.52E2,3.06E2,1.9E1,1E1,1.47E2,1.85E2,8E0,6E0,1.64E2,1.4E1,5.5E1,5.7E1,3.1E1,2.01E2,1.6E1,5.8E1,3.8E1,2.09E2,1.15E2,4.2E1,4.19E2,4.4E1,2.1E1,6E0,2.5E1,3E1,1.1E1,2.5E1,1.1E1,1.2E1],"tree_param":{"num_deleted":"0","num_feature":"10","num_nodes":"111","size_leaf_vector":"1"}},{"base_weights":[-7.3300356E-1,-1.895051E2,1.5798822E3,-4.7044647E2,1.9645352E2,9.242929E2,3.1836772E3,-7.763547E2,-4.180056E2,-2.0282921E2,6.3488794E2,5.3334845E2,1.1162549E3,1.082179E3,4.2588076E3,-8.56771E2,-6.796159E2,-4.849736E2,2.9108514E2,1.7736975E2,-6.302866E2,1.0762218E3,2.0326294E2,2.693039E2,6.74292E2,3.558003E2,1.3094586E3,1.152485E3,8.7659855E0,4.6336523E3,1.8925215E2,-4.924733E1,-7.5274164E2,-3.552978E1,-3.0642689E1,-6.111143E2,-3.7571545E2,3.6108643E2,1.492173E2,-3.3974582E2,5.2871344E2,-6.5221436E2,-5.8853625E2,6.574542E2,1.1848829E3,2.6743158E2,-1.6473959E1,6.362844E0,3.2649246E2,7.506349E2,4.1932913E2,2.0861731E2,6.983999E1,1.9246422E3,8.6302295E2,5.9089565E1,3.409975E1,1.8835771E2,5.4636616E3,-1.7477629E1,-7.9316223E2,-4.890722E2,-7.7546576E2,-4.6527927E2,-1.725481E2,2.2894772E2,3.9492587E2,7.130299E1,1.7129837E1,-3.6495468E2,1.0641261E2,-3.6712643E1,6.374285E2,-3.3091316E1,-2.5226383E1,-2.7010798E1,-3.2092575E1,6.0520874E2,9.986026E2,1.485813E3,1.0690554E3,2.3778653E2,6.972624E2,-5.71183E1,2.6815657E1,1.2752178E1,1.9601948E1,3.9778896E1,2.7831299E1,2.4252298E1,1.4281008E1,1.12429504E2,5.19769E1,5.6585865E1,1.1497906E2,6.676435E2,1.0323088E3,3.2308545E2,2.2708739E2,-3.491705E1,-4.393493E1,-2.8754694E1,-1.8177038E1,-3.2721554E1,-4.4036312E1,-2.3946741E1,6.439074E0,3.952633E-1,-2.1534218E1,1.2978647E1,6.3213696E0,2.2117504E1,1.6857014E1,6.2067294E0,-4.597265E0,-1.2301229E1,-2.3475801E1,-8.3967966E-1,1.248094E1,1.1372637E1,-1.0594077E1,6.8030235E1,2.4015034E1,3.8100735E1,2.3385359E1,3.0079105E1,5.7616352E1,8.080878E1,6.666149E1,4.4090954E1,6.609402E1,3.9711854E0,1.4100992E1,2.4244162E1,3.861714E1,-3.9161992E0,5.6031475E0,-2.134393E0,2.5929026E1,1.8160273E1,3.5544415E1,1.0558477E2,3.8159893E1],"categories":[],"categories_nodes":[],"categories_segments":[],"categories_sizes":[],"default_left":[0,0,0,0,0,0,0,0,0,0,0,0,0,0,0,0,0,0,0,0,0,0,0,0,0,0,0,0,0,0,0,0,0,0,0,0,0,0,0,0,0,0,0,0,0,0,0,0,0,0,0,0,0,0,0,0,0,0,0,0,0,0,0,0,0,0,0,0,0,0,0,0,0,0,0,0,0,0,0,0,0,0,0,0,0,0,0,0,0,0,0,0,0,0,0,0,0,0,0,0,0,0,0,0,0,0,0,0,0,0,0,0,0,0,0,0,0,0,0,0,0,0,0,0,0,0,0,0,0,0,0,0,0,0,0,0,0,0,0,0,0,0,0],"id":4,"left_children":[1,3,5,7,9,11,13,15,17,19,21,23,25,27,29,31,33,35,37,39,41,43,45,47,49,51,53,55,-1,57,-1,-1,59,-1,-1,61,63,65,67,69,71,73,75,77,79,81,83,-1,85,87,89,91,-1,93,95,-1,-1,-1,97,-1,99,101,103,105,107,109,111,113,-1,115,117,119,121,-1,-1,-1,-1,123,125,127,129,131,133,135,-1,-1,-1,-1,-1,-1,-1,137,-1,-1,-1,139,141,-1,-1,-1,-1,-1,-1,-1,-1,-1,-1,-1,-1,-1,-1,-1,-1,-1,-1,-1,-1,-1,-1,-1,-1,-1,-1,-1,-1,-1,-1,-1,-1,-1,-1,-1,-1,-1,-1,-1,-1,-1,-1,-1,-1,-1,-1],"loss_changes":[1.8738028E9,6.083945E8,7.0151616E8,5.1764224E7,4.1396896E8,3.5201824E7,4.3371187E8,3.105152E6,1.3186838E8,2.0131014E8,2.1446432E8,5.735652E6,4.64024E7,4.069712E6,5.19296E6,2.658784E6,1.9528E4,3.4707456E7,2.329544E6,1.1936517E8,1.49872E5,2.4566592E7,8.05563E6,4.21489E5,1.690092E6,9.820952E6,6.80975E7,4.8896E4,0E0,2.7603968E7,0E0,0E0,2.08584E6,0E0,0E0,2.3188672E7,2.4685088E7,6.25026E5,1.1960011E6,3.030578E6,2.4058312E7,1.95584E5,1.96848E5,1.480984E6,1.3783104E7,5.466324E6,2.95143E6,0E0,8.7342E4,2.37272E5,8.99215E4,4.598667E6,0E0,2.8911168E7,4.23896E6,0E0,0E0,0E0,9.6256E4,0E0,4.48872E5,7.101472E6,5.780928E6,7.7196E6,1.9474496E7,7.707275E4,1.9616E5,5.202689E5,0E0,3.018232E6,2.6885038E5,3.0097008E6,3.6617504E7,0E0,0E0,0E0,0E0,1.885952E6,1.61225E5,2.32208E5,1.4077152E7,2.88464E6,7.1978E4,4.4646488E5,0E0,0E0,0E0,0E0,0E0,0E0,0E0,3.4241955E6,0E0,0E0,0E0,6.89704E5,2.1045392E7,0E0,0E0,0E0,0E0,0E0,0E0,0E0,0E0,0E0,0E0,0E0,0E0,0E0,0E0,0E0,0E0,0E0,0E0,0E0,0E0,0E0,0E0,0E0,0E0,0E0,0E0,0E0,0E0,0E0,0E0,0E0,0E0,0E0,0E0,0E0,0E0,0E0,0E0,0E0,0E0,0E0,0E0,0E0,0E0,0E0,0E0],"parents":[2147483647,0,0,1,1,2,2,3,3,4,4,5,5,6,6,7,7,8,8,9,9,10,10,11,11,12,12,13,13,14,14,15,15,16,16,17,17,18,18,19,19,20,20,21,21,22,22,23,23,24,24,25,25,26,26,27,27,29,29,32,32,35,35,36,36,37,37,38,38,39,39,40,40,41,41,42,42,43,43,44,44,45,45,46,46,48,48,49,49,50,50,51,51,53,53,54,54,58,58,60,60,61,61,62,62,63,63,64,64,65,65,66,66,67,67,69,69,70,70,71,71,72,72,77,77,78,78,79,79,80,80,81,81,82,82,83,83,91,91,95,95,96,96],"right_children":[2,4,6,8,10,12,14,16,18,20,22,24,26,28,30,32,34,36,38,40,42,44,46,48,50,52,54,56,-1,58,-1,-1,60,-1,-1,62,64,66,68,70,72,74,76,78,80,82,84,-1,86,88,90,92,-1,94,96,-1,-1,-1,98,-1,100,102,104,106,108,110,112,114,-1,116,118,120,122,-1,-1,-1,-1,124,126,128,130,132,134,136,-1,-1,-1,-1,-1,-1,-1,138,-1,-1,-1,140,142,-1,-1,-1,-1,-1,-1,-1,-1,-1,-1,-1,-1,-1,-1,-1,-1,-1,-1,-1,-1,-1,-1,-1,-1,-1,-1,-1,-1,-1,-1,-1,-1,-1,-1,-1,-1,-1,-1,-1,-1,-1,-1,-1,-1,-1,-1],"split_conditions":[2E0,8E0,2E3,2.024E3,2.024E3,4E2,7E0,1E0,7E0,1E0,1E0,2E2,4E0,6E0,6E3,7E0,5.5E2,1E0,1.05E3,1E1,6E2,9E0,1.2E1,8E0,2.55E2,7E0,1.101E3,5E0,8.7659855E0,3.1E3,1.8925215E2,-4.924733E1,4.5E2,-3.552978E1,-3.0642689E1,3E0,5E0,4.5E2,2.1E3,3.5E3,9.5E2,6E0,1.1E1,3E3,1.45E3,1.675E3,1.801E3,6.362844E0,1E1,2E0,3E0,1.63E3,6.983999E1,5.5E2,9E0,5.9089565E1,3.409975E1,1.8835771E2,3E0,-1.7477629E1,7.5E2,2.025E3,2.025E3,1.315E3,2.025E3,5E0,8E2,1E0,1.7129837E1,1.05E3,4.1E3,5.5E2,1.05E3,-3.3091316E1,-2.5226383E1,-2.7010798E1,-3.2092575E1,1.05E3,3E0,1E1,1.1E1,4.5E2,1.1E1,1.38E3,2.6815657E1,1.2752178E1,1.9601948E1,3.9778896E1,2.7831299E1,2.4252298E1,1.4281008E1,5E0,5.19769E1,5.6585865E1,1.1497906E2,1.2E3,1.315E3,3.2308545E2,2.2708739E2,-3.491705E1,-4.393493E1,-2.8754694E1,-1.8177038E1,-3.2721554E1,-4.4036312E1,-2.3946741E1,6.439074E0,3.952633E-1,-2.1534218E1,1.2978647E1,6.3213696E0,2.2117504E1,1.6857014E1,6.2067294E0,-4.597265E0,-1.2301229E1,-2.3475801E1,-8.3967966E-1,1.248094E1,1.1372637E1,-1.0594077E1,6.8030235E1,2.4015034E1,3.8100735E1,2.3385359E1,3.0079105E1,5.7616352E1,8.080878E1,6.666149E1,4.4090954E1,6.609402E1,3.9711854E0,1.4100992E1,2.4244162E1,3.861714E1,-3.9161992E0,5.6031475E0,-2.134393E0,2.5929026E1,1.8160273E1,3.5544415E1,1.0558477E2,3.8159893E1],"split_indices":[0,2,9,3,3,9,2,0,2,0,0,9,0,5,9,2,9,0,9,2,9,2,2,2,9,2,9,5,0,9,0,0,9,0,0,7,2,9,9,9,9,5,2,9,9,9,9,0,2,7,2,9,0,9,2,0,0,0,5,0,9,3,3,9,3,5,9,0,0,9,9,9,9,0,0,0,0,9,5,2,2,9,2,9,0,0,0,0,0,0,0,5,0,0,0,9,9,0,0,0,0,0,0,0,0,0,0,0,0,0,0,0,0,0,0,0,0,0,0,0,0,0,0,0,0,0,0,0,0,0,0,0,0,0,0,0,0,0,0,0,0,0,0],"split_type":[0,0,0,0,0,0,0,0,0,0,0,0,0,0,0,0,0,0,0,0,0,0,0,0,0,0,0,0,0,0,0,0,0,0,0,0,0,0,0,0,0,0,0,0,0,0,0,0,0,0,0,0,0,0,0,0,0,0,0,0,0,0,0,0,0,0,0,0,0,0,0,0,0,0,0,0,0,0,0,0,0,0,0,0,0,0,0,0,0,0,0,0,0,0,0,0,0,0,0,0,0,0,0,0,0,0,0,0,0,0,0,0,0,0,0,0,0,0,0,0,0,0,0,0,0,0,0,0,0,0,0,0,0,0,0,0,0,0,0,0,0,0,0],"sum_hessian":[6.278E3,5.609E3,6.69E2,3.246E3,2.363E3,4.76E2,1.93E2,4.73E2,2.773E3,1.237E3,1.126E3,1.58E2,3.18E2,6.6E1,1.27E2,2.54E2,2.19E2,2.534E3,2.39E2,6.55E2,5.82E2,5.56E2,5.7E2,5.6E1,1.02E2,6.5E1,2.53E2,6.1E1,5E0,6.6E1,6.1E1,1.1E2,1.44E2,1.43E2,7.6E1,1.174E3,1.36E3,1.59E2,8E1,2.65E2,3.9E2,3.72E2,2.1E2,1.16E2,4.4E2,4.41E2,1.29E2,1.7E1,3.9E1,7.7E1,2.5E1,5.8E1,7E0,1.05E2,1.48E2,5.6E1,5E0,3.5E1,3.1E1,1.4E1,1.3E2,6.76E2,4.98E2,9.43E2,4.17E2,3.4E1,1.25E2,5.8E1,2.2E1,2.51E2,1.4E1,6.3E1,3.27E2,3.46E2,2.6E1,1.16E2,9.4E1,1.03E2,1.3E1,1.19E2,3.21E2,4.14E2,2.7E1,1.21E2,8E0,2.1E1,1.8E1,6E1,1.7E1,1.5E1,1E1,5.3E1,5E0,3.5E1,7E1,7.1E1,7.7E1,1.2E1,1.9E1,6.6E1,6.4E1,3.99E2,2.77E2,2.35E2,2.63E2,9.22E2,2.1E1,2.46E2,1.71E2,2.5E1,9E0,6.5E1,6E1,4.4E1,1.4E1,1.19E2,1.32E2,8E0,6E0,2.5E1,3.8E1,5.7E1,2.7E2,4.6E1,5.7E1,5E0,8E0,5.9E1,6E1,1.87E2,1.34E2,9.1E1,3.23E2,9E0,1.8E1,1.08E2,1.3E1,3.9E1,1.4E1,1E1,6.1E1,1.4E1,6.3E1],"tree_param":{"num_deleted":"0","num_feature":"10","num_nodes":"143","size_leaf_vector":"1"}},{"base_weights":[8.411545E0,-1.6505707E2,1.5107324E3,-4.325436E2,2.5195335E2,8.737283E2,3.085042E3,-6.9531335E2,-3.7733377E2,6.513851E2,-1.7881494E2,4.869877E2,1.0775479E3,1.0406035E3,4.18252E3,-5.303555E2,-7.5083734E2,-4.7969794E2,2.3752504E2,2.4557562E2,1.1038252E3,-6.0144275E2,2.0126666E2,2.5074026E2,6.4925684E2,1.482889E3,4.6571878E2,1.3088484E2,7.5074945E2,2.8404285E2,3.3539688E3,-6.831872E2,-3.9486258E2,-8.833656E2,-6.010145E2,-5.7395703E2,-3.9131406E2,4.1077917E2,1.5502931E2,-1.9122679E2,7.806791E2,1.5170139E3,8.283599E2,-3.6079727E1,-5.6999396E2,2.6807022E2,-1.341816E2,6.167849E0,3.012467E2,7.007672E2,2.0923954E1,4.267238E2,1.910197E3,-8.672706E0,5.0578488E2,6.135782E1,3.253202E2,3.6189438E3,1.1824236E2,-3.889613E1,-3.0368704E1,-2.1693306E2,-6.632709E2,-9.1230505E2,-5.630257E2,-6.362543E2,-5.309675E2,-3.7073727E2,-7.043048E2,-4.6244565E2,-2.3839853E2,4.9589282E2,3.446489E2,2.4085431E2,9.121556E0,1.7253387E2,-3.7964874E2,1.1531226E3,-1.0090437E2,4.8708736E1,1.5526776E3,6.98778E2,1.1792848E3,-3.753131E1,-5.635206E2,3.2850354E2,-1.8349161E2,-2.8478193E1,-1.6435488E1,1.1612988E1,1.6744843E1,3.6978695E1,2.2641438E1,-2.3434395E1,1.0344777E3,4.9381954E1,1.1006813E2,2.1284239E1,2.9648321E1,4.747468E1,3.6387512E1,1.5197992E2,2.1773955E2,-1.4720863E1,6.8971148E0,-3.633737E1,-2.066252E1,-5.0657093E1,-4.256667E1,-1.5973594E1,-3.1719568E1,-3.3680122E1,-2.7559961E1,-2.107552E1,-2.8354328E1,-2.5347994E1,-4.526343E0,-2.7040562E1,-3.827003E1,-2.38851E1,2.1594658E1,-1.7028112E0,-2.098324E1,2.7127157E1,1.798506E1,1.3986171E1,2.1360453E1,6.5394683E0,1.342097E1,5.320373E0,-8.132445E0,2.9500528E1,-6.7680016E0,-2.1816145E1,5.309499E-1,7.8943565E1,3.9266125E1,8.2690325E0,-2.0679327E1,8.263225E1,6.50951E1,4.5599777E1,2.083061E1,6.655746E1,1.4616965E1,-2.739295E1,-3.1867945E1,1.3877978E1,3.31495E1,-2.5838475E0,-1.1981212E1,-4.333803E0,4.0637975E0,5.3682545E1,-2.4970455E1,-3.5180442E0,9.44883E1,-5.984209E0,1.3253911E1],"categories":[],"categories_nodes":[],"categories_segments":[],"categories_sizes":[],"default_left":[0,0,0,0,0,0,0,0,0,0,0,0,0,0,0,0,0,0,0,0,0,0,0,0,0,0,0,0,0,0,0,0,0,0,0,0,0,0,0,0,0,0,0,0,0,0,0,0,0,0,0,0,0,0,0,0,0,0,0,0,0,0,0,0,0,0,0,0,0,0,0,0,0,0,0,0,0,0,0,0,0,0,0,0,0,0,0,0,0,0,0,0,0,0,0,0,0,0,0,0,0,0,0,0,0,0,0,0,0,0,0,0,0,0,0,0,0,0,0,0,0,0,0,0,0,0,0,0,0,0,0,0,0,0,0,0,0,0,0,0,0,0,0,0,0,0,0,0,0,0,0,0,0,0,0,0,0,0,0],"id":5,"left_children":[1,3,5,7,9,11,13,15,17,19,21,23,25,27,29,31,33,35,37,39,41,43,45,47,49,51,53,-1,55,-1,57,59,61,63,65,67,69,71,73,75,77,79,81,-1,83,85,87,-1,89,91,-1,93,95,-1,97,-1,99,101,-1,-1,-1,103,105,107,109,111,113,115,117,119,121,123,125,127,129,131,133,135,137,-1,139,141,143,-1,145,147,149,151,-1,-1,-1,-1,-1,153,155,-1,-1,-1,-1,157,-1,-1,-1,-1,-1,-1,-1,-1,-1,-1,-1,-1,-1,-1,-1,-1,-1,-1,-1,-1,-1,-1,-1,-1,-1,-1,-1,-1,-1,-1,-1,-1,-1,-1,-1,-1,-1,-1,-1,-1,-1,-1,-1,-1,-1,-1,-1,-1,-1,-1,-1,-1,-1,-1,-1,-1,-1,-1,-1],"loss_changes":[1.6464945E9,6.31898E8,6.5316275E8,4.980288E7,3.810629E8,3.628669E7,4.174684E8,5.078944E6,1.797433E8,2.106904E8,1.7135589E8,6.08592E6,7.494922E7,2.8662272E7,1.3240333E8,2.919204E6,8.30488E6,2.0161344E7,5.76775E6,1.4202611E8,6.0547136E7,1.496912E6,1.2629902E7,4.003295E5,8.4794E5,8.177421E7,3.237654E6,0E0,1.135607E7,0E0,1.2671232E7,3.7444E4,3.867767E6,1.655632E6,1.85488E5,3.1049184E7,1.3660208E7,5.66434E5,3.479067E6,2.3026568E7,8.975322E7,2.669088E6,1.4091248E7,0E0,5.0576E4,1.2858992E7,1.9234941E6,0E0,3.36455E4,4.05964E5,0E0,1.4797853E7,3.274608E7,0E0,5.57642E5,0E0,3.543479E6,1.3194432E7,0E0,0E0,0E0,1.4704685E6,2.23396E5,4.47024E5,1.797205E5,6.0736E4,6.5386E4,1.7665456E7,6.768E6,1.1981376E7,1.4950014E7,1.54284E5,2.93239E5,4.95835E5,1.7552349E6,1.4861793E7,4.892738E6,2.8825456E7,6.89593E6,0E0,2.887392E6,1.4179416E7,1.1329344E7,0E0,1.07608E5,6.870568E6,4.0196688E5,4.0306703E5,0E0,0E0,0E0,0E0,0E0,1.7246106E7,2.1866936E7,0E0,0E0,0E0,0E0,7.592128E5,0E0,0E0,0E0,0E0,0E0,0E0,0E0,0E0,0E0,0E0,0E0,0E0,0E0,0E0,0E0,0E0,0E0,0E0,0E0,0E0,0E0,0E0,0E0,0E0,0E0,0E0,0E0,0E0,0E0,0E0,0E0,0E0,0E0,0E0,0E0,0E0,0E0,0E0,0E0,0E0,0E0,0E0,0E0,0E0,0E0,0E0,0E0,0E0,0E0,0E0,0E0,0E0,0E0,0E0,0E0,0E0,0E0,0E0,0E0],"parents":[2147483647,0,0,1,1,2,2,3,3,4,4,5,5,6,6,7,7,8,8,9,9,10,10,11,11,12,12,13,13,14,14,15,15,16,16,17,17,18,18,19,19,20,20,21,21,22,22,23,23,24,24,25,25,26,26,28,28,30,30,31,31,32,32,33,33,34,34,35,35,36,36,37,37,38,38,39,39,40,40,41,41,42,42,44,44,45,45,46,46,48,48,49,49,51,51,52,52,54,54,56,56,57,57,61,61,62,62,63,63,64,64,65,65,66,66,67,67,68,68,69,69,70,70,71,71,72,72,73,73,74,74,75,75,76,76,77,77,78,78,80,80,81,81,82,82,84,84,85,85,86,86,87,87,93,93,94,94,99,99],"right_children":[2,4,6,8,10,12,14,16,18,20,22,24,26,28,30,32,34,36,38,40,42,44,46,48,50,52,54,-1,56,-1,58,60,62,64,66,68,70,72,74,76,78,80,82,-1,84,86,88,-1,90,92,-1,94,96,-1,98,-1,100,102,-1,-1,-1,104,106,108,110,112,114,116,118,120,122,124,126,128,130,132,134,136,138,-1,140,142,144,-1,146,148,150,152,-1,-1,-1,-1,-1,154,156,-1,-1,-1,-1,158,-1,-1,-1,-1,-1,-1,-1,-1,-1,-1,-1,-1,-1,-1,-1,-1,-1,-1,-1,-1,-1,-1,-1,-1,-1,-1,-1,-1,-1,-1,-1,-1,-1,-1,-1,-1,-1,-1,-1,-1,-1,-1,-1,-1,-1,-1,-1,-1,-1,-1,-1,-1,-1,-1,-1,-1,-1,-1,-1],"split_conditions":[2E0,2.25E2,2E3,2.024E3,1E0,4E2,1.83E2,2E0,1.63E2,2.024E3,2.024E3,2E2,4E0,2E0,3E0,1E0,1E0,1E0,3E0,2.97E2,3E0,2E0,3.46E2,2.09E2,2.55E2,4E0,4E0,1.3088484E2,3E0,2.8404285E2,4E0,1.81E2,1E0,2.19E2,2.03E2,7.4E1,1.15E2,1E0,1.101E3,3E0,3.46E2,2.35E2,3.11E2,-3.6079727E1,1.02E2,4E0,3.6E2,6.167849E0,2.59E2,3.06E2,2.0923954E1,1.71E2,2E0,-8.672706E0,1.45E3,6.135782E1,1.76E2,2.03E2,1.1824236E2,-3.889613E1,-3.0368704E1,5.5E2,2.09E2,1.79E2,3E0,8.51E2,2E0,2.025E3,2E0,1.315E3,2.025E3,1.8E3,2E0,1E0,1E0,1.05E3,2.9E2,3E0,3.56E2,4.8708736E1,2.2E3,2.74E2,4E0,-3.753131E1,4E0,1.5E3,2E0,1.101E3,-1.6435488E1,1.1612988E1,1.6744843E1,3.6978695E1,2.2641438E1,2E0,8.5E2,4.9381954E1,1.1006813E2,2.1284239E1,2.9648321E1,1.71E2,3.6387512E1,1.5197992E2,2.1773955E2,-1.4720863E1,6.8971148E0,-3.633737E1,-2.066252E1,-5.0657093E1,-4.256667E1,-1.5973594E1,-3.1719568E1,-3.3680122E1,-2.7559961E1,-2.107552E1,-2.8354328E1,-2.5347994E1,-4.526343E0,-2.7040562E1,-3.827003E1,-2.38851E1,2.1594658E1,-1.7028112E0,-2.098324E1,2.7127157E1,1.798506E1,1.3986171E1,2.1360453E1,6.5394683E0,1.342097E1,5.320373E0,-8.132445E0,2.9500528E1,-6.7680016E0,-2.1816145E1,5.309499E-1,7.8943565E1,3.9266125E1,8.2690325E0,-2.0679327E1,8.263225E1,6.50951E1,4.5599777E1,2.083061E1,6.655746E1,1.4616965E1,-2.739295E1,-3.1867945E1,1.3877978E1,3.31495E1,-2.5838475E0,-1.1981212E1,-4.333803E0,4.0637975E0,5.3682545E1,-2.4970455E1,-3.5180442E0,9.44883E1,-5.984209E0,1.3253911E1],"split_indices":[0,4,9,3,0,9,4,1,4,3,3,9,1,1,1,1,0,0,1,4,1,1,4,4,9,0,0,0,0,0,1,4,0,4,4,4,4,0,9,1,4,4,4,0,9,1,4,0,4,4,0,4,1,0,9,0,4,4,0,0,0,9,4,4,1,9,5,3,1,9,3,9,1,0,0,9,4,1,4,0,9,4,1,0,1,9,5,9,0,0,0,0,0,1,9,0,0,0,0,4,0,0,0,0,0,0,0,0,0,0,0,0,0,0,0,0,0,0,0,0,0,0,0,0,0,0,0,0,0,0,0,0,0,0,0,0,0,0,0,0,0,0,0,0,0,0,0,0,0,0,0,0,0,0,0,0,0,0,0],"split_type":[0,0,0,0,0,0,0,0,0,0,0,0,0,0,0,0,0,0,0,0,0,0,0,0,0,0,0,0,0,0,0,0,0,0,0,0,0,0,0,0,0,0,0,0,0,0,0,0,0,0,0,0,0,0,0,0,0,0,0,0,0,0,0,0,0,0,0,0,0,0,0,0,0,0,0,0,0,0,0,0,0,0,0,0,0,0,0,0,0,0,0,0,0,0,0,0,0,0,0,0,0,0,0,0,0,0,0,0,0,0,0,0,0,0,0,0,0,0,0,0,0,0,0,0,0,0,0,0,0,0,0,0,0,0,0,0,0,0,0,0,0,0,0,0,0,0,0,0,0,0,0,0,0,0,0,0,0,0,0],"sum_hessian":[6.316E3,5.663E3,6.53E2,3.45E3,2.213E3,4.66E2,1.87E2,5.97E2,2.853E3,1.148E3,1.065E3,1.62E2,3.04E2,6.6E1,1.21E2,1.53E2,4.44E2,2.446E3,4.07E2,6.06E2,5.42E2,5.04E2,5.61E2,6.7E1,9.5E1,1.82E2,1.22E2,9E0,5.7E1,4.1E1,8E1,7E1,8.3E1,2.33E2,2.11E2,1.181E3,1.265E3,1.3E2,2.77E2,3.34E2,2.72E2,2.15E2,3.27E2,1E2,4.04E2,4.68E2,9.3E1,2E1,4.7E1,7.6E1,1.9E1,5.3E1,1.29E2,7E0,1.15E2,2.6E1,3.1E1,6.1E1,1.9E1,2.7E1,4.3E1,5.1E1,3.2E1,2.12E2,2.1E1,1.35E2,7.6E1,4.63E2,7.18E2,8.62E2,4.03E2,5.4E1,7.6E1,1.74E2,1.03E2,1.14E2,2.2E2,1.91E2,8.1E1,1.5E1,2E2,2.41E2,8.6E1,1E1,3.94E2,4.13E2,5.5E1,6.1E1,3.2E1,1.8E1,2.9E1,6.4E1,1.2E1,3.1E1,2.2E1,3.2E1,9.7E1,6.3E1,5.2E1,1.9E1,1.2E1,3.7E1,2.4E1,4.2E1,9E0,2.4E1,8E0,7.4E1,1.38E2,6E0,1.5E1,8.9E1,4.6E1,2.2E1,5.4E1,3.11E2,1.52E2,1.98E2,5.2E2,8.48E2,1.4E1,1.9E2,2.13E2,3.8E1,1.6E1,4.5E1,3.1E1,3.6E1,1.38E2,6.6E1,3.7E1,4.8E1,6.6E1,1.92E2,2.8E1,8.7E1,1.04E2,4.4E1,3.7E1,1.39E2,6.1E1,1.36E2,1.05E2,7.3E1,1.3E1,3.32E2,6.2E1,3.6E2,5.3E1,1.7E1,3.8E1,4E1,2.1E1,9E0,2.2E1,1E1,1.2E1,1.1E1,8E0],"tree_param":{"num_deleted":"0","num_feature":"10","num_nodes":"159","size_leaf_vector":"1"}},{"base_weights":[1.2852544E1,-1.609016E2,1.4523276E3,-4.0660217E2,2.174967E2,2.3258672E3,9.0680835E2,-6.651035E2,-3.5331274E2,5.941257E2,-1.8503078E2,6.30357E2,3.9401487E3,5.45876E2,1.2402759E3,-4.880293E2,-7.2615045E2,-4.549823E2,2.4180502E2,2.2448915E2,1.0212251E3,-5.726942E2,1.7843158E2,1.8005166E3,3.8387228E2,5.253012E3,3.2979702E3,4.5912888E2,3.381121E1,1.0492147E2,4.8887604E2,-6.2885406E2,-3.310943E2,-8.3856604E2,-5.975011E2,-5.4471063E2,-3.6584006E2,3.9080222E2,1.6229062E2,-1.6821977E2,7.492384E2,1.4532211E3,7.6129596E2,-3.670925E1,-5.499352E2,2.4397462E2,-1.5264798E2,5.4455677E1,1.5846822E2,5.8536434E1,9.016715E1,3.0110123E2,2.2126675E2,1.0779138E2,3.6054233E3,3.202642E2,2.5478666E1,2.1298298E1,2.8675444E1,-3.6180897E1,-2.857908E1,-1.5148993E2,-6.0456696E2,-8.648215E2,-5.3983075E2,-3.1213266E1,-2.6533136E1,-3.3478906E2,-6.6050836E2,-4.366881E2,-2.4627791E2,4.852769E2,3.1866794E2,1.9562875E2,7.255969E0,1.8412093E2,-3.630511E2,1.089794E3,-2.6327936E2,4.9918133E1,7.452134E1,6.486181E2,1.0773751E3,-2.6329874E1,-2.8976248E1,3.026008E2,-1.6960419E2,-6.383481E1,-1.7169287E1,-5.3627747E2,7.464252E2,1.9488168E2,1.17867455E2,1.7319773E1,8.126059E0,-1.7962584E1,-2.4683778E0,-3.3282116E1,-1.9744184E1,-4.8384052E1,-4.013975E1,-1.6032354E1,-2.941426E1,-2.4433786E1,5.6848896E-1,-2.496086E1,-3.656636E1,-2.2763018E1,-1.3411267E1,-3.476918E0,-1.9905241E1,2.2185894E1,3.0726822E1,1.246875E1,2.0661737E1,5.2260027E0,1.2293387E1,1.3244141E1,-7.543921E0,-1.345784E1,1.8779324E1,-2.0803007E1,-1.3512646E0,7.4475174E1,4.288767E1,3.1210778E0,-1.7921598E1,4.1812057E1,1.8593061E1,6.3029064E1,9.853066E0,1.4205831E1,1.7283598E1,-3.0198603E0,-1.1062948E1,-1.0340217E1,-1.8339859E0,-3.8488842E1,-1.8597973E1,2.1378006E1,4.639504E1],"categories":[],"categories_nodes":[],"categories_segments":[],"categories_sizes":[],"default_left":[0,0,0,0,0,0,0,0,0,0,0,0,0,0,0,0,0,0,0,0,0,0,0,0,0,0,0,0,0,0,0,0,0,0,0,0,0,0,0,0,0,0,0,0,0,0,0,0,0,0,0,0,0,0,0,0,0,0,0,0,0,0,0,0,0,0,0,0,0,0,0,0,0,0,0,0,0,0,0,0,0,0,0,0,0,0,0,0,0,0,0,0,0,0,0,0,0,0,0,0,0,0,0,0,0,0,0,0,0,0,0,0,0,0,0,0,0,0,0,0,0,0,0,0,0,0,0,0,0,0,0,0,0,0,0,0,0,0,0,0,0],"id":6,"left_children":[1,3,5,7,9,11,13,15,17,19,21,23,25,27,29,31,33,35,37,39,41,43,45,47,49,51,53,55,-1,-1,57,59,61,63,65,67,69,71,73,75,77,79,81,-1,83,85,87,-1,-1,-1,89,-1,-1,-1,91,93,-1,-1,-1,-1,-1,95,97,99,101,-1,-1,103,105,107,109,111,113,115,117,119,121,123,125,-1,-1,127,129,-1,-1,131,133,135,-1,137,139,-1,-1,-1,-1,-1,-1,-1,-1,-1,-1,-1,-1,-1,-1,-1,-1,-1,-1,-1,-1,-1,-1,-1,-1,-1,-1,-1,-1,-1,-1,-1,-1,-1,-1,-1,-1,-1,-1,-1,-1,-1,-1,-1,-1,-1,-1,-1,-1,-1,-1],"loss_changes":[1.5744559E9,5.2231597E8,3.209801E8,4.668397E7,3.354569E8,7.0914445E8,4.9753504E7,5.926144E6,1.7109818E8,1.8021792E8,1.508663E8,3.622742E7,9.480704E7,1.984916E6,1.388993E8,3.151044E6,5.717696E6,1.9109312E7,4.829562E6,1.266553E8,5.8406464E7,1.500096E6,1.2037322E7,1.7971864E7,2.4622538E7,8.32E4,2.4533632E7,7.1242E5,0E0,0E0,3.7864E5,1.5156E4,3.543063E6,1.3136E6,3.3656E4,2.8973312E7,1.0175936E7,8.19884E5,1.399263E6,2.4230588E7,9.097421E7,1.862848E6,1.1161024E7,0E0,1.1104E4,1.1253226E7,1.536562E6,0E0,0E0,0E0,3.2877924E7,0E0,0E0,0E0,1.6705664E7,9.209625E4,0E0,0E0,0E0,0E0,0E0,9.582525E5,1.08537E5,5.43808E5,3.4397E4,0E0,0E0,2.2858048E7,8.464448E6,2.258864E6,1.2154874E7,4.9634E4,4.47386E5,9.9502E5,2.0362085E6,1.1036262E7,4.03217E6,1.6993888E7,2.0987905E6,0E0,0E0,1.2566672E7,1.3621576E7,0E0,0E0,2.24224E5,3.1381825E5,2.4088484E5,0E0,1.286769E6,1.86005E6,0E0,0E0,0E0,0E0,0E0,0E0,0E0,0E0,0E0,0E0,0E0,0E0,0E0,0E0,0E0,0E0,0E0,0E0,0E0,0E0,0E0,0E0,0E0,0E0,0E0,0E0,0E0,0E0,0E0,0E0,0E0,0E0,0E0,0E0,0E0,0E0,0E0,0E0,0E0,0E0,0E0,0E0,0E0,0E0,0E0,0E0,0E0,0E0,0E0,0E0],"parents":[2147483647,0,0,1,1,2,2,3,3,4,4,5,5,6,6,7,7,8,8,9,9,10,10,11,11,12,12,13,13,14,14,15,15,16,16,17,17,18,18,19,19,20,20,21,21,22,22,23,23,24,24,25,25,26,26,27,27,30,30,31,31,32,32,33,33,34,34,35,35,36,36,37,37,38,38,39,39,40,40,41,41,42,42,44,44,45,45,46,46,50,50,54,54,55,55,61,61,62,62,63,63,64,64,67,67,68,68,69,69,70,70,71,71,72,72,73,73,74,74,75,75,76,76,77,77,78,78,81,81,82,82,85,85,86,86,87,87,89,89,90,90],"right_children":[2,4,6,8,10,12,14,16,18,20,22,24,26,28,30,32,34,36,38,40,42,44,46,48,50,52,54,56,-1,-1,58,60,62,64,66,68,70,72,74,76,78,80,82,-1,84,86,88,-1,-1,-1,90,-1,-1,-1,92,94,-1,-1,-1,-1,-1,96,98,100,102,-1,-1,104,106,108,110,112,114,116,118,120,122,124,126,-1,-1,128,130,-1,-1,132,134,136,-1,138,140,-1,-1,-1,-1,-1,-1,-1,-1,-1,-1,-1,-1,-1,-1,-1,-1,-1,-1,-1,-1,-1,-1,-1,-1,-1,-1,-1,-1,-1,-1,-1,-1,-1,-1,-1,-1,-1,-1,-1,-1,-1,-1,-1,-1,-1,-1,-1,-1,-1,-1],"split_conditions":[2E0,2.25E2,4E0,2.024E3,1E0,1.83E2,2E0,2E0,1.63E2,2.024E3,2.024E3,2E0,3E0,2E0,4E0,1E0,1E0,1E0,3E0,2.97E2,3E0,1E0,3.46E2,1.75E2,3E0,3E0,1.91E2,1.97E2,3.381121E1,1.0492147E2,2E0,1.81E2,1E0,2.19E2,2.04E2,7E1,1.06E2,1E0,4E0,3E0,3.49E2,2.36E2,3.11E2,-3.670925E1,2E0,4E0,3.6E2,5.4455677E1,1.5846822E2,5.8536434E1,1.71E2,3.0110123E2,2.2126675E2,1.0779138E2,4E0,1.92E2,2.5478666E1,2.1298298E1,2.8675444E1,-3.6180897E1,-2.857908E1,1.83E2,2.08E2,1.79E2,3E0,-3.1213266E1,-2.6533136E1,2.025E3,2E0,6E0,2.025E3,2.17E2,2E0,1E0,1E0,1E0,2.89E2,2E0,3.53E2,4.9918133E1,7.452134E1,2.74E2,4E0,-2.6329874E1,-2.8976248E1,3.11E2,2E0,1E0,-1.7169287E1,1.63E2,1.76E2,1.9488168E2,1.17867455E2,1.7319773E1,8.126059E0,-1.7962584E1,-2.4683778E0,-3.3282116E1,-1.9744184E1,-4.8384052E1,-4.013975E1,-1.6032354E1,-2.941426E1,-2.4433786E1,5.6848896E-1,-2.496086E1,-3.656636E1,-2.2763018E1,-1.3411267E1,-3.476918E0,-1.9905241E1,2.2185894E1,3.0726822E1,1.246875E1,2.0661737E1,5.2260027E0,1.2293387E1,1.3244141E1,-7.543921E0,-1.345784E1,1.8779324E1,-2.0803007E1,-1.3512646E0,7.4475174E1,4.288767E1,3.1210778E0,-1.7921598E1,4.1812057E1,1.8593061E1,6.3029064E1,9.853066E0,1.4205831E1,1.7283598E1,-3.0198603E0,-1.1062948E1,-1.0340217E1,-1.8339859E0,-3.8488842E1,-1.8597973E1,2.1378006E1,4.639504E1],"split_indices":[0,4,0,3,0,4,1,1,4,3,3,1,1,7,1,1,0,0,1,4,1,1,4,4,0,5,4,4,0,0,7,4,0,4,4,4,4,0,1,1,4,4,4,0,7,1,4,0,0,0,4,0,0,0,1,4,0,0,0,0,0,4,4,4,1,0,0,3,1,5,3,4,1,0,0,1,4,1,4,0,0,4,1,0,0,4,5,1,0,4,4,0,0,0,0,0,0,0,0,0,0,0,0,0,0,0,0,0,0,0,0,0,0,0,0,0,0,0,0,0,0,0,0,0,0,0,0,0,0,0,0,0,0,0,0,0,0,0,0,0,0],"split_type":[0,0,0,0,0,0,0,0,0,0,0,0,0,0,0,0,0,0,0,0,0,0,0,0,0,0,0,0,0,0,0,0,0,0,0,0,0,0,0,0,0,0,0,0,0,0,0,0,0,0,0,0,0,0,0,0,0,0,0,0,0,0,0,0,0,0,0,0,0,0,0,0,0,0,0,0,0,0,0,0,0,0,0,0,0,0,0,0,0,0,0,0,0,0,0,0,0,0,0,0,0,0,0,0,0,0,0,0,0,0,0,0,0,0,0,0,0,0,0,0,0,0,0,0,0,0,0,0,0,0,0,0,0,0,0,0,0,0,0,0,0],"sum_hessian":[6.293E3,5.616E3,6.77E2,3.405E3,2.211E3,2.59E2,4.18E2,5.8E2,2.825E3,1.142E3,1.069E3,1.27E2,1.32E2,2.02E2,2.16E2,1.51E2,4.29E2,2.413E3,4.12E2,6.13E2,5.29E2,5.17E2,5.52E2,2.1E1,1.06E2,4.1E1,9.1E1,1.24E2,7.8E1,1E2,1.16E2,7.8E1,7.3E1,2.26E2,2.03E2,1.2E3,1.213E3,1.42E2,2.7E2,3.51E2,2.62E2,1.97E2,3.32E2,6E1,4.57E2,4.61E2,9.1E1,1.5E1,6E0,2.8E1,7.8E1,1.8E1,2.3E1,2.1E1,7E1,3.5E1,8.9E1,7E1,4.6E1,2.5E1,5.3E1,4.5E1,2.8E1,2.06E2,2E1,1.39E2,6.4E1,4.28E2,7.72E2,7.6E2,4.53E2,5.9E1,8.3E1,2.22E2,4.8E1,1.25E2,2.26E2,1.96E2,6.6E1,1.7E1,1.8E2,2.47E2,8.5E1,2.66E2,1.91E2,4.04E2,5.7E1,6.3E1,2.8E1,4E1,3.8E1,5.5E1,1.5E1,2.9E1,6E0,1.4E1,3.1E1,2E1,8E0,7.2E1,1.34E2,5E0,1.5E1,2.96E2,1.32E2,2.38E2,5.34E2,6.83E2,7.7E1,2.1E2,2.43E2,4.8E1,1.1E1,5E1,3.3E1,8E1,1.42E2,1.8E1,3E1,3.7E1,8.8E1,1.95E2,3.1E1,7E1,1.26E2,1.5E1,5.1E1,1.46E2,1.01E2,7E1,1.5E1,2.88E2,1.16E2,1.9E1,3.8E1,9E0,5.4E1,1.5E1,2.5E1,1.5E1,2.3E1],"tree_param":{"num_deleted":"0","num_feature":"10","num_nodes":"141","size_leaf_vector":"1"}},{"base_weights":[6.604919E0,-1.5884946E2,1.4067278E3,-3.911774E2,1.9651018E2,8.1969916E2,2.8668955E3,-4.4076498E2,-1.7555396E2,5.596479E2,-1.873009E2,4.6172226E2,1.00698694E3,9.296633E2,3.843508E3,-5.5395306E2,-3.395934E2,-1.0244118E0,-2.3409421E2,9.5639325E2,3.178003E2,-4.1982162E2,-1.5039096E1,2.1858063E2,6.1362805E2,1.3232966E3,4.331571E2,2.195374E3,6.596182E2,2.6682892E2,3.3213342E3,-3.6362567E2,-6.5680414E2,-4.2365707E2,-2.584551E2,-1.751188E2,3.0292044E2,-3.3336856E2,-1.3044415E2,1.0696158E3,-1.4945207E2,4.9713886E1,5.3336804E2,-5.8752594E2,-3.222307E2,-7.0084114E1,4.577326E2,4.680415E0,2.644507E2,6.7763196E2,3.3753552E2,6.950258E2,1.8310181E3,3.4844205E2,2.8846655E1,4.3043755E1,1.5819885E2,5.4648018E1,3.3760352E2,2.680042E3,3.812427E3,-1.0811892E2,-4.8486963E2,-4.9125656E2,-7.236955E2,-4.401948E2,3.9396282E1,-3.9637378E2,-1.6887665E2,-1.274173E1,-3.9256213E2,2.6908104E1,2.5978468E1,-6.2072327E2,-9.499258E1,-3.4779077E2,-6.831118E1,8.0006305E2,1.4473755E3,4.8683486E0,-2.0313148E2,-8.5307556E1,4.7342136E2,7.3614703E2,2.4147787E2,-3.528701E1,-5.204633E2,-2.8428067E2,-3.063082E1,1.5537044E2,-1.9745593E2,5.4475964E2,6.7719795E1,1.1070581E1,1.6700037E1,3.5194435E1,1.9468418E1,1.9994526E1,1.1447801E1,3.643909E2,1.2932467E3,3.8140095E1,1.05232605E2,-7.624177E0,1.9778845E1,1.14950165E2,3.588339E1,7.461315E1,2.824514E3,2.0675163E2,1.11703735E2,4.2248413E-2,-1.6194218E1,-9.564207E0,-2.9458052E1,-2.8631907E1,-2.046028E1,-3.005022E1,-3.827719E1,-2.4683378E1,-1.6992832E1,-3.0371546E1,-1.7141214E1,-1.9186077E1,-5.5477347E0,2.1861062E0,-1.0069442E1,-2.7839537E1,-6.220513E0,-2.052873E1,7.2499237E0,-3.4516922E1,-2.3814344E1,-6.2052065E-1,-1.5164731E1,-1.401702E1,-2.4101645E1,1.8688687E0,-1.4643056E1,5.4186634E1,1.7180296E1,8.9908195E1,6.301559E1,3.626766E0,-1.2658073E1,-1.6375412E1,3.5367754E0,3.4078457E1,-2.1618032E1,3.925064E1,-1.1257205E1,-1.6511446E1,2.3798223E1,-1.4913671E1,-2.7873672E1,-6.229697E0,-1.758315E1,1.2401217E1,-8.670022E0,-3.6743233E0,-1.5363111E1,1.9387543E1,3.3066364E1,-4.4345016E0,1.324898E1,-1.7755579E0,3.965485E1,4.0013763E1,8.681005E1,-4.3155665E0,1.4493034E1,1.503784E2,9.4008E1],"categories":[],"categories_nodes":[],"categories_segments":[],"categories_sizes":[],"default_left":[0,0,0,0,0,0,0,0,0,0,0,0,0,0,0,0,0,0,0,0,0,0,0,0,0,0,0,0,0,0,0,0,0,0,0,0,0,0,0,0,0,0,0,0,0,0,0,0,0,0,0,0,0,0,0,0,0,0,0,0,0,0,0,0,0,0,0,0,0,0,0,0,0,0,0,0,0,0,0,0,0,0,0,0,0,0,0,0,0,0,0,0,0,0,0,0,0,0,0,0,0,0,0,0,0,0,0,0,0,0,0,0,0,0,0,0,0,0,0,0,0,0,0,0,0,0,0,0,0,0,0,0,0,0,0,0,0,0,0,0,0,0,0,0,0,0,0,0,0,0,0,0,0,0,0,0,0,0,0,0,0,0,0,0,0,0,0,0,0,0,0,0,0],"id":7,"left_children":[1,3,5,7,9,11,13,15,17,19,21,23,25,27,29,31,33,35,37,39,41,43,45,47,49,51,53,55,57,-1,59,61,63,65,67,69,71,73,75,77,79,81,83,85,87,89,91,-1,93,95,97,99,101,103,-1,-1,-1,-1,105,107,109,111,113,115,117,119,-1,121,123,125,127,129,-1,131,133,135,137,139,141,-1,143,145,147,149,151,-1,153,155,-1,157,159,161,163,-1,-1,-1,-1,-1,-1,165,167,-1,-1,-1,-1,169,-1,-1,171,-1,-1,-1,-1,-1,-1,-1,-1,-1,-1,-1,-1,-1,-1,-1,-1,-1,-1,-1,-1,-1,-1,-1,-1,-1,-1,-1,-1,-1,-1,-1,-1,-1,-1,-1,-1,-1,-1,-1,-1,-1,-1,-1,-1,-1,-1,-1,-1,-1,-1,-1,-1,-1,-1,-1,-1,-1,-1,-1,-1,-1,-1,-1,-1],"loss_changes":[1.4554894E9,4.639813E8,5.6680435E8,3.625485E7,3.0979888E8,3.1381312E7,3.558926E8,3.1440672E7,6.507992E6,1.0927312E8,4.329253E7,5.960084E6,5.587581E7,2.0768828E7,8.051034E7,2.5248352E7,9.855664E6,8.572378E6,4.864746E6,5.424915E7,4.106273E7,7.33924E6,1.6218839E7,3.4785675E5,1.556048E6,6.2524704E7,1.163132E6,1.1494808E7,7.30585E6,0E0,2.0016128E7,1.4166784E7,8.990688E6,1.4693216E7,9.149552E6,3.631703E6,3.5140865E6,1.658616E7,3.1497745E6,3.875789E7,5.6299156E5,1.8233038E7,2.3142776E7,9.64552E5,3.054752E6,1.6054517E7,2.169318E6,0E0,6.673675E4,3.39004E5,5.06225E4,1.7527888E7,3.0547616E7,1.783928E6,0E0,0E0,0E0,0E0,2.7100492E6,3.507136E6,1.7239744E7,3.5033585E6,9.409632E6,1.40832E6,2.615424E6,3.625536E6,0E0,3.103248E6,5.607109E6,6.479096E5,1.86841E6,1.4544202E6,0E0,7.77248E5,2.3013085E6,3.3571E5,4.3777E6,2.9538208E7,8.36416E6,0E0,4.8727762E5,9.169251E6,1.4811994E7,1.1074768E7,2.2008564E7,0E0,7.46504E5,2.76456E6,0E0,6.196314E6,4.837129E6,7.13584E5,4.2459488E5,0E0,0E0,0E0,0E0,0E0,0E0,1.031459E7,5.598204E6,0E0,0E0,0E0,0E0,7.994789E5,0E0,0E0,1.087104E6,0E0,0E0,0E0,0E0,0E0,0E0,0E0,0E0,0E0,0E0,0E0,0E0,0E0,0E0,0E0,0E0,0E0,0E0,0E0,0E0,0E0,0E0,0E0,0E0,0E0,0E0,0E0,0E0,0E0,0E0,0E0,0E0,0E0,0E0,0E0,0E0,0E0,0E0,0E0,0E0,0E0,0E0,0E0,0E0,0E0,0E0,0E0,0E0,0E0,0E0,0E0,0E0,0E0,0E0,0E0,0E0,0E0,0E0,0E0,0E0,0E0,0E0,0E0,0E0],"parents":[2147483647,0,0,1,1,2,2,3,3,4,4,5,5,6,6,7,7,8,8,9,9,10,10,11,11,12,12,13,13,14,14,15,15,16,16,17,17,18,18,19,19,20,20,21,21,22,22,23,23,24,24,25,25,26,26,27,27,28,28,30,30,31,31,32,32,33,33,34,34,35,35,36,36,37,37,38,38,39,39,40,40,41,41,42,42,43,43,44,44,45,45,46,46,48,48,49,49,50,50,51,51,52,52,53,53,58,58,59,59,60,60,61,61,62,62,63,63,64,64,65,65,67,67,68,68,69,69,70,70,71,71,73,73,74,74,75,75,76,76,77,77,78,78,80,80,81,81,82,82,83,83,84,84,86,86,87,87,89,89,90,90,91,91,92,92,99,99,100,100,105,105,108,108],"right_children":[2,4,6,8,10,12,14,16,18,20,22,24,26,28,30,32,34,36,38,40,42,44,46,48,50,52,54,56,58,-1,60,62,64,66,68,70,72,74,76,78,80,82,84,86,88,90,92,-1,94,96,98,100,102,104,-1,-1,-1,-1,106,108,110,112,114,116,118,120,-1,122,124,126,128,130,-1,132,134,136,138,140,142,-1,144,146,148,150,152,-1,154,156,-1,158,160,162,164,-1,-1,-1,-1,-1,-1,166,168,-1,-1,-1,-1,170,-1,-1,172,-1,-1,-1,-1,-1,-1,-1,-1,-1,-1,-1,-1,-1,-1,-1,-1,-1,-1,-1,-1,-1,-1,-1,-1,-1,-1,-1,-1,-1,-1,-1,-1,-1,-1,-1,-1,-1,-1,-1,-1,-1,-1,-1,-1,-1,-1,-1,-1,-1,-1,-1,-1,-1,-1,-1,-1,-1,-1,-1,-1,-1,-1,-1,-1],"split_conditions":[2E0,2.24E2,2E3,1.87E2,1E0,4E2,1.83E2,1E0,2E0,3E0,6E2,2E2,4E0,2E0,2E0,7.6E1,9.2E1,7.5E2,1E0,3.44E2,1.63E3,3E0,1.5E3,8E0,2.55E2,1.86E2,2E0,1.73E2,3E0,2.6682892E2,2.02E2,2E0,2E0,1.315E3,2E0,1E0,1E0,1.1E3,4E2,2.96E2,3.48E2,3.01E2,4E0,1E0,4E0,3E0,3.46E2,4.680415E0,2.91E2,3.11E2,3E0,4E0,2E0,1.62E2,2.8846655E1,4.3043755E1,1.5819885E2,5.4648018E1,1.76E2,2.6E3,4E0,6.5E1,2E0,2E0,9.9E1,8E2,3.9396282E1,4.5E2,4E2,6.5E2,5.5E2,1E0,2.5978468E1,8.5E2,4E0,2.15E2,8.51E2,1.255E3,1.45E3,4.8683486E0,6.5E2,1.05E3,3.56E2,3.48E2,3.5E3,-3.528701E1,9E0,2.59E2,-3.063082E1,3.42E2,2.92E2,3.09E2,3.56E2,1.1070581E1,1.6700037E1,3.5194435E1,1.9468418E1,1.9994526E1,1.1447801E1,1.71E2,2E0,3.8140095E1,1.05232605E2,-7.624177E0,1.9778845E1,1.71E2,3.588339E1,7.461315E1,4E0,2.0675163E2,1.11703735E2,4.2248413E-2,-1.6194218E1,-9.564207E0,-2.9458052E1,-2.8631907E1,-2.046028E1,-3.005022E1,-3.827719E1,-2.4683378E1,-1.6992832E1,-3.0371546E1,-1.7141214E1,-1.9186077E1,-5.5477347E0,2.1861062E0,-1.0069442E1,-2.7839537E1,-6.220513E0,-2.052873E1,7.2499237E0,-3.4516922E1,-2.3814344E1,-6.2052065E-1,-1.5164731E1,-1.401702E1,-2.4101645E1,1.8688687E0,-1.4643056E1,5.4186634E1,1.7180296E1,8.9908195E1,6.301559E1,3.626766E0,-1.2658073E1,-1.6375412E1,3.5367754E0,3.4078457E1,-2.1618032E1,3.925064E1,-1.1257205E1,-1.6511446E1,2.3798223E1,-1.4913671E1,-2.7873672E1,-6.229697E0,-1.758315E1,1.2401217E1,-8.670022E0,-3.6743233E0,-1.5363111E1,1.9387543E1,3.3066364E1,-4.4345016E0,1.324898E1,-1.7755579E0,3.965485E1,4.0013763E1,8.681005E1,-4.3155665E0,1.4493034E1,1.503784E2,9.4008E1],"split_indices":[0,4,9,4,0,9,4,0,1,1,9,9,1,1,1,4,4,9,0,4,9,1,9,2,9,4,7,4,0,0,4,8,1,9,8,0,1,9,9,4,4,4,1,1,1,1,4,0,4,4,2,0,1,4,0,0,0,0,4,9,1,4,1,8,4,9,0,9,9,9,9,0,0,9,1,4,9,9,9,0,9,9,4,4,9,0,2,4,0,4,4,4,4,0,0,0,0,0,0,4,1,0,0,0,0,4,0,0,1,0,0,0,0,0,0,0,0,0,0,0,0,0,0,0,0,0,0,0,0,0,0,0,0,0,0,0,0,0,0,0,0,0,0,0,0,0,0,0,0,0,0,0,0,0,0,0,0,0,0,0,0,0,0,0,0,0,0,0,0,0,0,0,0],"split_type":[0,0,0,0,0,0,0,0,0,0,0,0,0,0,0,0,0,0,0,0,0,0,0,0,0,0,0,0,0,0,0,0,0,0,0,0,0,0,0,0,0,0,0,0,0,0,0,0,0,0,0,0,0,0,0,0,0,0,0,0,0,0,0,0,0,0,0,0,0,0,0,0,0,0,0,0,0,0,0,0,0,0,0,0,0,0,0,0,0,0,0,0,0,0,0,0,0,0,0,0,0,0,0,0,0,0,0,0,0,0,0,0,0,0,0,0,0,0,0,0,0,0,0,0,0,0,0,0,0,0,0,0,0,0,0,0,0,0,0,0,0,0,0,0,0,0,0,0,0,0,0,0,0,0,0,0,0,0,0,0,0,0,0,0,0,0,0,0,0,0,0,0,0],"sum_hessian":[6.281E3,5.618E3,6.63E2,3.397E3,2.221E3,4.74E2,1.89E2,2.761E3,6.36E2,1.141E3,1.08E3,1.64E2,3.1E2,6.4E1,1.25E2,1.301E3,1.46E3,1.6E2,4.76E2,4.31E2,7.1E2,4.59E2,6.21E2,6.4E1,1E2,1.99E2,1.11E2,1E1,5.4E1,3E1,9.5E1,4.58E2,8.43E2,7.15E2,7.45E2,1.02E2,5.8E1,2.42E2,2.34E2,3.91E2,4E1,3.17E2,3.93E2,1.67E2,2.92E2,5.57E2,6.4E1,1.8E1,4.6E1,8E1,2E1,9E1,1.09E2,7.2E1,3.9E1,5E0,5E0,2.2E1,3.2E1,4.4E1,5.1E1,1.48E2,3.1E2,2.45E2,5.98E2,7.06E2,9E0,2.92E2,4.53E2,5.9E1,4.3E1,2.6E1,3.2E1,1.09E2,1.33E2,5.1E1,1.83E2,2.3E2,1.61E2,7E0,3.3E1,2.41E2,7.6E1,2.31E2,1.62E2,5.7E1,1.1E2,2.6E2,3.2E1,2.01E2,3.56E2,5.2E1,1.2E1,3.1E1,1.5E1,7.2E1,8E0,1.1E1,9E0,5.9E1,3.1E1,2.3E1,8.6E1,6E0,6.6E1,2.1E1,1.1E1,6E0,3.8E1,4.1E1,1E1,9.9E1,4.9E1,8.2E1,2.28E2,1.2E2,1.25E2,1.56E2,4.42E2,4.58E2,2.48E2,5.7E1,2.35E2,9.5E1,3.58E2,4.6E1,1.3E1,2.6E1,1.7E1,5E0,2.1E1,7.1E1,3.8E1,9.6E1,3.7E1,3.6E1,1.5E1,1.25E2,5.8E1,1.41E2,8.9E1,5.3E1,1.08E2,5E0,2.8E1,9.4E1,1.47E2,6.2E1,1.4E1,2.2E2,1.1E1,4.7E1,1.15E2,1.7E1,9.3E1,7.8E1,1.82E2,1.57E2,4.4E1,1.68E2,1.88E2,2.4E1,2.8E1,7E0,5E0,3.1E1,2.8E1,1.6E1,1.5E1,1E1,1.1E1,3E1,8E0],"tree_param":{"num_deleted":"0","num_feature":"10","num_nodes":"173","size_leaf_vector":"1"}},{"base_weights":[1.0056043E1,-1.4248317E2,1.3046566E3,-3.637818E2,2.0702824E2,2.059542E3,8.261369E2,-4.1113696E2,-1.625091E2,5.639732E2,-1.6488623E2,5.467396E2,3.5562544E3,4.9967157E2,1.0929994E3,-5.145151E2,-3.1975348E2,-5.3292133E1,-2.2486569E2,8.825843E2,3.571979E2,-1.3680807E2,-3.2725854E2,1.5834222E3,2.9227997E2,4.609994E3,3.0427056E3,4.353631E2,5.89382E2,9.456924E1,4.3501962E2,-3.3181018E2,-6.2880493E2,-3.862475E2,-2.307997E2,1.4871104E1,-1.4343846E2,-3.095403E2,-1.3787758E2,9.9430505E2,-1.590168E2,1.8437671E2,6.622544E2,-1.1423657E2,-3.201021E2,-2.9451508E2,-1.9101635E1,4.4789856E1,1.4663255E2,5.3599926E1,1.8630219E1,2.901205E2,1.910482E2,9.508017E1,3.2857212E3,3.2557135E2,2.3881971E1,3.064385E1,2.1599592E1,1.8659271E1,2.6039295E1,-1.0253457E2,-4.574538E2,-4.8011868E2,-6.8853406E2,-4.0079944E2,-2.4263048E2,-1.779244E1,-1.5854872E2,7.378331E1,-1.2486926E2,4.17996E1,-1.683248E2,-2.123978E2,-3.665011E2,-9.7243004E1,-3.347891E2,7.5769324E2,1.3270188E3,-6.626749E1,-1.3634303E1,2.4747815E2,7.041879E1,8.114193E2,-3.1156522E2,1.12753105E2,-1.19244865E2,-3.2783575E2,-7.279569E0,-3.2028107E2,-2.612186E0,-4.9966776E2,5.497402E2,3.5878281E3,1.0900387E2,3.9143997E2,7.7933174E-1,4.594511E-1,-1.6788578E1,-1.27145605E1,-2.9614145E1,-2.7596334E1,-2.0241041E1,-2.8496445E1,-3.6231853E1,-2.092931E1,-1.5333356E1,-3.532002E0,-1.9448973E1,-5.798951E0,-2.0488272E1,-3.243626E0,8.018447E0,-1.0690357E1,1.3729562E0,-1.1809937E0,6.102948E0,-1.3655728E1,-4.73847E0,-1.3215179E1,1.5073731E0,-1.9798721E1,-9.663053E0,2.0931456E0,-7.250725E0,-2.035148E1,-1.0566658E1,2.1569324E1,4.4801357E1,5.1688313E1,7.171984E1,1.127452E0,-9.067832E0,1.1195928E0,1.5959238E1,-2.0672116E0,1.1714228E1,4.4177258E1,2.2990286E1,-8.825049E0,-3.0228144E1,1.2414866E1,-9.985911E0,-9.544319E0,-5.377462E0,-1.371718E1,-1.737404E1,-1.7922138E1,-5.024408E0,-4.04967E1,-1.8462395E1,3.0566359E1,9.043366E0,1.5307422E2,2.093512E2,2.1805906E1,1.1261495E1],"categories":[],"categories_nodes":[],"categories_segments":[],"categories_sizes":[],"default_left":[0,0,0,0,0,0,0,0,0,0,0,0,0,0,0,0,0,0,0,0,0,0,0,0,0,0,0,0,0,0,0,0,0,0,0,0,0,0,0,0,0,0,0,0,0,0,0,0,0,0,0,0,0,0,0,0,0,0,0,0,0,0,0,0,0,0,0,0,0,0,0,0,0,0,0,0,0,0,0,0,0,0,0,0,0,0,0,0,0,0,0,0,0,0,0,0,0,0,0,0,0,0,0,0,0,0,0,0,0,0,0,0,0,0,0,0,0,0,0,0,0,0,0,0,0,0,0,0,0,0,0,0,0,0,0,0,0,0,0,0,0,0,0,0,0,0,0,0,0,0,0,0,0,0,0,0,0],"id":8,"left_children":[1,3,5,7,9,11,13,15,17,19,21,23,25,27,29,31,33,35,37,39,41,43,45,47,49,51,53,55,57,-1,59,61,63,65,67,69,71,73,75,77,79,81,83,85,87,89,-1,-1,-1,-1,91,-1,-1,-1,93,95,-1,-1,-1,-1,-1,97,99,101,103,105,107,-1,109,111,113,115,117,119,121,123,125,127,129,131,-1,133,135,137,139,141,143,145,-1,147,-1,149,151,153,-1,155,-1,-1,-1,-1,-1,-1,-1,-1,-1,-1,-1,-1,-1,-1,-1,-1,-1,-1,-1,-1,-1,-1,-1,-1,-1,-1,-1,-1,-1,-1,-1,-1,-1,-1,-1,-1,-1,-1,-1,-1,-1,-1,-1,-1,-1,-1,-1,-1,-1,-1,-1,-1,-1,-1,-1,-1,-1,-1,-1,-1,-1],"loss_changes":[1.2346167E9,4.326737E8,2.363474E8,3.257792E7,2.8803424E8,5.7543424E8,3.473805E7,2.6022688E7,4.442018E6,7.261488E7,4.801566E6,3.330282E7,5.5240064E7,8.04928E5,1.1579853E8,2.6916192E7,8.629408E6,1.4707082E6,3.021448E6,5.077843E7,3.5358616E7,3.720032E6,1.67271E5,2.0567024E7,2.2170486E7,1.5463296E7,1.8432128E7,3.59712E5,8.884E3,0E0,4.57952E5,1.441422E7,6.756352E6,1.662464E6,5.662684E6,1.1370538E6,4.818555E5,1.084152E6,1.6237372E6,2.9933056E7,4.3526775E5,3.081853E6,3.555092E7,9.34279E5,8.588E4,6.19988E5,0E0,0E0,0E0,0E0,2.1746E7,0E0,0E0,0E0,1.6227904E7,6.8812025E5,0E0,0E0,0E0,0E0,0E0,4.6674805E6,8.724472E6,1.030988E6,2.014912E6,1.149136E6,1.986172E6,0E0,4.262246E6,1.1749471E6,5.6132925E5,7.113984E4,6.7553175E5,1.015128E6,5.92354E5,1.1557074E6,2.261295E5,1.0085776E7,3.618368E6,2.5963488E5,0E0,4.46368E6,2.848377E6,4.9448E6,1.1992198E6,8.1195575E5,6.43919E5,3.451E3,0E0,7.35646E5,0E0,1.31953E6,7.75423E5,4.527552E6,0E0,1.097E5,0E0,0E0,0E0,0E0,0E0,0E0,0E0,0E0,0E0,0E0,0E0,0E0,0E0,0E0,0E0,0E0,0E0,0E0,0E0,0E0,0E0,0E0,0E0,0E0,0E0,0E0,0E0,0E0,0E0,0E0,0E0,0E0,0E0,0E0,0E0,0E0,0E0,0E0,0E0,0E0,0E0,0E0,0E0,0E0,0E0,0E0,0E0,0E0,0E0,0E0,0E0,0E0,0E0,0E0,0E0,0E0,0E0,0E0,0E0,0E0,0E0],"parents":[2147483647,0,0,1,1,2,2,3,3,4,4,5,5,6,6,7,7,8,8,9,9,10,10,11,11,12,12,13,13,14,14,15,15,16,16,17,17,18,18,19,19,20,20,21,21,22,22,23,23,24,24,25,25,26,26,27,27,28,28,30,30,31,31,32,32,33,33,34,34,35,35,36,36,37,37,38,38,39,39,40,40,41,41,42,42,43,43,44,44,45,45,50,50,54,54,55,55,61,61,62,62,63,63,64,64,65,65,66,66,68,68,69,69,70,70,71,71,72,72,73,73,74,74,75,75,76,76,77,77,78,78,79,79,81,81,82,82,83,83,84,84,85,85,86,86,87,87,89,89,91,91,92,92,93,93,95,95],"right_children":[2,4,6,8,10,12,14,16,18,20,22,24,26,28,30,32,34,36,38,40,42,44,46,48,50,52,54,56,58,-1,60,62,64,66,68,70,72,74,76,78,80,82,84,86,88,90,-1,-1,-1,-1,92,-1,-1,-1,94,96,-1,-1,-1,-1,-1,98,100,102,104,106,108,-1,110,112,114,116,118,120,122,124,126,128,130,132,-1,134,136,138,140,142,144,146,-1,148,-1,150,152,154,-1,156,-1,-1,-1,-1,-1,-1,-1,-1,-1,-1,-1,-1,-1,-1,-1,-1,-1,-1,-1,-1,-1,-1,-1,-1,-1,-1,-1,-1,-1,-1,-1,-1,-1,-1,-1,-1,-1,-1,-1,-1,-1,-1,-1,-1,-1,-1,-1,-1,-1,-1,-1,-1,-1,-1,-1,-1,-1,-1,-1,-1,-1],"split_conditions":[2E0,2.25E2,4E0,1.87E2,1E0,1.83E2,2E0,1E0,3E0,3E0,3.48E2,2E0,3E0,2E0,4E0,7.9E1,1.12E2,1E0,1E0,3.44E2,3.02E2,4E0,3.6E2,1.75E2,3E0,2E0,1.91E2,1.97E2,3.49E2,9.456924E1,2E0,2E0,2E0,6E0,2E0,2E0,1.93E2,3E0,4E0,2.97E2,2E0,1E1,3.51E2,2.3E2,3.42E2,6E0,-1.9101635E1,4.4789856E1,1.4663255E2,5.3599926E1,1.71E2,2.901205E2,1.910482E2,9.508017E1,4E0,1.87E2,2.3881971E1,3.064385E1,2.1599592E1,1.8659271E1,2.6039295E1,6.7E1,3E0,2E0,9.9E1,9.2E1,5E1,-1.779244E1,4E0,1E0,4E0,1.9E2,3E0,4E0,2.19E2,2E0,2.09E2,1E0,1E0,3.54E2,-1.3634303E1,2.41E2,2.92E2,4E0,5E0,3E0,1E0,2E0,-7.279569E0,3.58E2,-2.612186E0,1.61E2,4E0,2.07E2,1.0900387E2,4E0,7.7933174E-1,4.594511E-1,-1.6788578E1,-1.27145605E1,-2.9614145E1,-2.7596334E1,-2.0241041E1,-2.8496445E1,-3.6231853E1,-2.092931E1,-1.5333356E1,-3.532002E0,-1.9448973E1,-5.798951E0,-2.0488272E1,-3.243626E0,8.018447E0,-1.0690357E1,1.3729562E0,-1.1809937E0,6.102948E0,-1.3655728E1,-4.73847E0,-1.3215179E1,1.5073731E0,-1.9798721E1,-9.663053E0,2.0931456E0,-7.250725E0,-2.035148E1,-1.0566658E1,2.1569324E1,4.4801357E1,5.1688313E1,7.171984E1,1.127452E0,-9.067832E0,1.1195928E0,1.5959238E1,-2.0672116E0,1.1714228E1,4.4177258E1,2.2990286E1,-8.825049E0,-3.0228144E1,1.2414866E1,-9.985911E0,-9.544319E0,-5.377462E0,-1.371718E1,-1.737404E1,-1.7922138E1,-5.024408E0,-4.04967E1,-1.8462395E1,3.0566359E1,9.043366E0,1.5307422E2,2.093512E2,2.1805906E1,1.1261495E1],"split_indices":[0,4,0,4,0,4,1,0,1,1,4,1,1,7,1,4,4,0,0,4,4,1,4,4,0,5,4,4,4,0,7,8,1,5,8,1,4,5,1,4,1,2,4,4,4,5,0,0,0,0,4,0,0,0,1,4,0,0,0,0,0,4,1,8,4,4,4,0,1,1,5,4,5,1,4,5,4,1,1,4,0,4,4,1,5,5,1,5,0,4,0,4,1,4,0,5,0,0,0,0,0,0,0,0,0,0,0,0,0,0,0,0,0,0,0,0,0,0,0,0,0,0,0,0,0,0,0,0,0,0,0,0,0,0,0,0,0,0,0,0,0,0,0,0,0,0,0,0,0,0,0,0,0,0,0,0,0],"split_type":[0,0,0,0,0,0,0,0,0,0,0,0,0,0,0,0,0,0,0,0,0,0,0,0,0,0,0,0,0,0,0,0,0,0,0,0,0,0,0,0,0,0,0,0,0,0,0,0,0,0,0,0,0,0,0,0,0,0,0,0,0,0,0,0,0,0,0,0,0,0,0,0,0,0,0,0,0,0,0,0,0,0,0,0,0,0,0,0,0,0,0,0,0,0,0,0,0,0,0,0,0,0,0,0,0,0,0,0,0,0,0,0,0,0,0,0,0,0,0,0,0,0,0,0,0,0,0,0,0,0,0,0,0,0,0,0,0,0,0,0,0,0,0,0,0,0,0,0,0,0,0,0,0,0,0,0,0],"sum_hessian":[6.25E3,5.592E3,6.58E2,3.424E3,2.168E3,2.54E2,4.04E2,2.771E3,6.53E2,1.106E3,1.062E3,1.27E2,1.27E2,1.83E2,2.21E2,1.298E3,1.473E3,2.38E2,4.15E2,4.34E2,6.72E2,9.07E2,1.55E2,2.4E1,1.03E2,3.9E1,8.8E1,1.1E2,7.3E1,9.9E1,1.22E2,5.01E2,7.97E2,8.41E2,6.32E2,1.36E2,1.02E2,2.09E2,2.06E2,3.92E2,4.2E1,4.3E2,2.42E2,8.09E2,9.8E1,1.01E2,5.4E1,1.7E1,7E0,2.6E1,7.7E1,1.3E1,2.6E1,1.7E1,7.1E1,3.3E1,7.7E1,6.1E1,1.2E1,7.4E1,4.8E1,1.78E2,3.23E2,2.31E2,5.66E2,7.62E2,7.9E1,2.3E2,4.02E2,9.6E1,4E1,1.2E1,9E1,7.9E1,1.3E2,1.72E2,3.4E1,2.31E2,1.61E2,2.4E1,1.8E1,2.76E2,1.54E2,2.1E2,3.2E1,1.7E1,7.92E2,9.3E1,5E0,9.1E1,1E1,3.9E1,3.8E1,5.4E1,1.7E1,2.7E1,6E0,1.21E2,5.7E1,1.3E2,1.93E2,1.15E2,1.16E2,1.36E2,4.3E2,6.38E2,1.24E2,3.7E1,4.2E1,3.45E2,5.7E1,3.7E1,5.9E1,2.5E1,1.5E1,7E0,5E0,3.6E1,5.4E1,6.5E1,1.4E1,1.1E2,2E1,4.4E1,1.28E2,2E1,1.4E1,7E1,1.61E2,4.6E1,1.15E2,1.4E1,1E1,6.7E1,2.09E2,9.2E1,6.2E1,1.73E2,3.7E1,2.3E1,9E0,1.2E1,5E0,1.09E2,6.83E2,2.9E1,6.4E1,7.7E1,1.4E1,1E1,2.9E1,3.2E1,6E0,3.2E1,2.2E1,2E1,7E0],"tree_param":{"num_deleted":"0","num_feature":"10","num_nodes":"157","size_leaf_vector":"1"}},{"base_weights":[-1.2245835E-1,-1.4513615E2,1.252028E3,-3.6819232E2,1.6075288E2,7.319056E2,2.565177E3,-6.2205164E2,-3.2350778E2,-1.7918156E2,5.258811E2,4.0850613E2,8.8874603E2,7.5037866E2,3.4234111E3,-6.9198193E2,-5.662344E2,-3.784516E2,2.7041583E2,1.06854706E2,-5.177788E2,8.877413E2,1.891196E2,1.9329463E2,5.6010455E2,1.1364374E3,5.754895E2,6.660239E1,6.374466E2,3.835268E3,1.428781E2,-3.9116245E1,-5.779843E2,-5.097982E2,-6.530006E2,-4.7479968E2,-2.9175778E2,3.3791437E2,1.3372604E2,-3.1523083E2,4.0108856E2,-3.538644E1,-2.5655317E1,5.415572E2,9.8077185E2,2.4578482E2,-1.1269752E1,3.8207073E0,2.3228552E2,6.0474603E2,1.6510477E1,7.778529E2,1.5668784E3,4.4206433E2,6.597621E2,5.072099E1,3.3719397E2,5.266378E3,3.2768674E3,-3.0488667E1,-2.2728056E1,-4.5751163E2,-2.7492819E1,-3.6564213E1,-2.4988127E1,-3.7245465E2,-6.124599E2,-3.3083173E2,-3.6557188E0,2.2639748E2,3.6122903E2,5.1452312E1,1.6177713E1,-3.3386084E2,8.281389E0,1.6114354E2,5.5410645E2,5.617731E2,1.564001E1,1.2854069E3,8.62731E2,2.1725316E2,6.400607E2,-4.6302513E1,2.3827429E1,8.989098E0,1.3590816E1,3.1528442E1,2.235958E1,2.9224985E2,1.067608E3,4.193227E1,1.783508E3,3.8477292E2,4.3723053E1,7.667005E2,2.29343E1,1.5534158E0,4.8148865E2,1.570791E2,2.9209735E2,1.3103305E2,1.928759E2,-1.0517556E1,-2.5300879E1,-2.1657207E1,-1.4009709E1,-2.4520634E1,-3.5440258E1,-1.704926E1,4.318177E0,6.2683496E0,-1.610085E1,1.3543106E1,5.519098E0,2.0512152E1,1.5411357E1,4.306345E0,-2.568916E0,-1.1209883E1,-2.158698E1,-8.064345E0,1.1801969E1,4.7496063E1,7.8497086E0,2.6779936E1,3.6435787E1,6.5808395E1,3.4511623E1,3.5441463E1,5.3173794E1,3.0447803E0,1.2967361E1,2.0264654E1,3.5204884E1,-3.2788033E0,6.2395434E0,1.1532812E0,3.1170736E1,6.3296947E1,3.5455017E1,9.897307E1,5.8571144E1,2.8002394E1,1.3517659E1,4.385302E1,2.5862244E1,4.870579E1,1.333302E1],"categories":[],"categories_nodes":[],"categories_segments":[],"categories_sizes":[],"default_left":[0,0,0,0,0,0,0,0,0,0,0,0,0,0,0,0,0,0,0,0,0,0,0,0,0,0,0,0,0,0,0,0,0,0,0,0,0,0,0,0,0,0,0,0,0,0,0,0,0,0,0,0,0,0,0,0,0,0,0,0,0,0,0,0,0,0,0,0,0,0,0,0,0,0,0,0,0,0,0,0,0,0,0,0,0,0,0,0,0,0,0,0,0,0,0,0,0,0,0,0,0,0,0,0,0,0,0,0,0,0,0,0,0,0,0,0,0,0,0,0,0,0,0,0,0,0,0,0,0,0,0,0,0,0,0,0,0,0,0,0,0,0,0,0,0,0,0,0,0],"id":9,"left_children":[1,3,5,7,9,11,13,15,17,19,21,23,25,27,29,31,33,35,37,39,41,43,45,47,49,51,53,-1,55,57,-1,-1,59,61,63,65,67,69,71,73,75,-1,-1,77,79,81,83,-1,85,87,-1,89,91,93,95,-1,97,99,101,-1,-1,103,-1,-1,-1,105,107,109,111,113,115,117,-1,119,-1,121,123,125,-1,127,129,131,133,135,-1,-1,-1,-1,-1,137,139,-1,141,143,-1,145,-1,-1,147,-1,-1,-1,-1,-1,-1,-1,-1,-1,-1,-1,-1,-1,-1,-1,-1,-1,-1,-1,-1,-1,-1,-1,-1,-1,-1,-1,-1,-1,-1,-1,-1,-1,-1,-1,-1,-1,-1,-1,-1,-1,-1,-1,-1,-1,-1,-1,-1,-1,-1],"loss_changes":[1.1493948E9,3.8713046E8,4.4685222E8,3.701709E7,2.9711258E8,2.3577808E7,2.8713024E8,1.5208E6,9.12121E7,1.2015069E8,1.4045923E8,4.981346E6,2.394232E7,3.157924E6,1.8404736E7,1.741488E6,1.0284E6,2.1211168E7,2.141458E6,8.370755E7,1.4096E5,1.7375232E7,6.80448E6,2.8303025E5,7.34226E5,2.594672E7,1.305E6,0E0,5.656866E6,3.868211E7,0E0,0E0,1.07324E5,1.10784E5,9.06112E5,1.680528E7,1.5173616E7,3.29016E5,1.2327825E6,2.536774E6,1.4486908E7,0E0,0E0,3.7922E5,1.4605312E7,5.114394E6,2.2949852E6,0E0,5.283225E4,2.3152E4,0E0,1.347718E7,1.0967072E7,1.100344E6,1.476056E6,0E0,1.3543825E6,3.660416E6,1.0085248E7,0E0,0E0,8.64648E5,0E0,0E0,0E0,3.775712E6,5.696352E6,5.057536E6,6.694654E6,1.24859375E5,2.08672E5,2.0766478E5,0E0,2.769102E6,0E0,3.8052668E6,3.788913E7,8.5988E4,0E0,1.288496E6,9.070784E6,2.860422E6,1.80682E5,4.2038047E5,0E0,0E0,0E0,0E0,0E0,3.373106E6,3.439616E6,0E0,4.877632E6,9.114995E5,0E0,1.03296E6,0E0,0E0,1.9626765E6,0E0,0E0,0E0,0E0,0E0,0E0,0E0,0E0,0E0,0E0,0E0,0E0,0E0,0E0,0E0,0E0,0E0,0E0,0E0,0E0,0E0,0E0,0E0,0E0,0E0,0E0,0E0,0E0,0E0,0E0,0E0,0E0,0E0,0E0,0E0,0E0,0E0,0E0,0E0,0E0,0E0,0E0,0E0,0E0,0E0,0E0,0E0,0E0,0E0,0E0],"parents":[2147483647,0,0,1,1,2,2,3,3,4,4,5,5,6,6,7,7,8,8,9,9,10,10,11,11,12,12,13,13,14,14,15,15,16,16,17,17,18,18,19,19,20,20,21,21,22,22,23,23,24,24,25,25,26,26,28,28,29,29,32,32,33,33,34,34,35,35,36,36,37,37,38,38,39,39,40,40,43,43,44,44,45,45,46,46,48,48,49,49,51,51,52,52,53,53,54,54,56,56,57,57,58,58,61,61,65,65,66,66,67,67,68,68,69,69,70,70,71,71,73,73,75,75,76,76,77,77,79,79,80,80,81,81,82,82,83,83,89,89,90,90,92,92,93,93,95,95,98,98],"right_children":[2,4,6,8,10,12,14,16,18,20,22,24,26,28,30,32,34,36,38,40,42,44,46,48,50,52,54,-1,56,58,-1,-1,60,62,64,66,68,70,72,74,76,-1,-1,78,80,82,84,-1,86,88,-1,90,92,94,96,-1,98,100,102,-1,-1,104,-1,-1,-1,106,108,110,112,114,116,118,-1,120,-1,122,124,126,-1,128,130,132,134,136,-1,-1,-1,-1,-1,138,140,-1,142,144,-1,146,-1,-1,148,-1,-1,-1,-1,-1,-1,-1,-1,-1,-1,-1,-1,-1,-1,-1,-1,-1,-1,-1,-1,-1,-1,-1,-1,-1,-1,-1,-1,-1,-1,-1,-1,-1,-1,-1,-1,-1,-1,-1,-1,-1,-1,-1,-1,-1,-1,-1,-1,-1,-1],"split_conditions":[2E0,8E0,2E3,2.024E3,2.024E3,4E2,7E0,7E0,7E0,1E0,1E0,2E2,1.25E3,2.1E3,6E3,1E0,7.5E2,1E0,1.101E3,1E1,1.02E2,9E0,1.2E1,8E0,2.55E2,8E0,7E0,6.660239E1,3E0,2E0,1.428781E2,-3.9116245E1,8.5E2,1E0,1E0,3E0,6E0,4.5E2,2.1E3,3.3E3,1.1E1,-3.538644E1,-2.5655317E1,6E0,1.45E3,1.675E3,1.801E3,3.8207073E0,1E1,2E0,1.6510477E1,4E0,5.5E2,1.8E3,4E0,5.072099E1,3E3,2.1E3,3.1E3,-3.0488667E1,-2.2728056E1,4.5E2,-2.7492819E1,-3.6564213E1,-2.4988127E1,2.025E3,2.025E3,1.315E3,2.025E3,5E0,8E2,1E0,1.6177713E1,1.05E3,8.281389E0,9.5E2,1.2E1,3E3,1.564001E1,6E0,1.1E1,4.5E2,1.1E1,1.38E3,2.3827429E1,8.989098E0,1.3590816E1,3.1528442E1,2.235958E1,8.5E2,1.05E3,4.193227E1,1.101E3,5E0,4.3723053E1,1.501E3,2.29343E1,1.5534158E0,3.1E3,1.570791E2,2.9209735E2,1.3103305E2,1.928759E2,-1.0517556E1,-2.5300879E1,-2.1657207E1,-1.4009709E1,-2.4520634E1,-3.5440258E1,-1.704926E1,4.318177E0,6.2683496E0,-1.610085E1,1.3543106E1,5.519098E0,2.0512152E1,1.5411357E1,4.306345E0,-2.568916E0,-1.1209883E1,-2.158698E1,-8.064345E0,1.1801969E1,4.7496063E1,7.8497086E0,2.6779936E1,3.6435787E1,6.5808395E1,3.4511623E1,3.5441463E1,5.3173794E1,3.0447803E0,1.2967361E1,2.0264654E1,3.5204884E1,-3.2788033E0,6.2395434E0,1.1532812E0,3.1170736E1,6.3296947E1,3.5455017E1,9.897307E1,5.8571144E1,2.8002394E1,1.3517659E1,4.385302E1,2.5862244E1,4.870579E1,1.333302E1],"split_indices":[0,2,9,3,3,9,2,2,2,0,0,9,9,9,9,0,9,0,9,2,9,2,2,2,9,2,2,0,0,5,0,0,9,0,0,7,2,9,9,9,2,0,0,5,9,9,9,0,2,7,0,0,9,9,5,0,9,9,9,0,0,9,0,0,0,3,3,9,3,5,9,0,0,9,0,9,2,9,0,5,2,9,2,9,0,0,0,0,0,9,9,0,9,2,0,9,0,0,9,0,0,0,0,0,0,0,0,0,0,0,0,0,0,0,0,0,0,0,0,0,0,0,0,0,0,0,0,0,0,0,0,0,0,0,0,0,0,0,0,0,0,0,0,0,0,0,0,0,0],"split_type":[0,0,0,0,0,0,0,0,0,0,0,0,0,0,0,0,0,0,0,0,0,0,0,0,0,0,0,0,0,0,0,0,0,0,0,0,0,0,0,0,0,0,0,0,0,0,0,0,0,0,0,0,0,0,0,0,0,0,0,0,0,0,0,0,0,0,0,0,0,0,0,0,0,0,0,0,0,0,0,0,0,0,0,0,0,0,0,0,0,0,0,0,0,0,0,0,0,0,0,0,0,0,0,0,0,0,0,0,0,0,0,0,0,0,0,0,0,0,0,0,0,0,0,0,0,0,0,0,0,0,0,0,0,0,0,0,0,0,0,0,0,0,0,0,0,0,0,0,0],"sum_hessian":[6.328E3,5.672E3,6.56E2,3.28E3,2.392E3,4.71E2,1.85E2,4.89E2,2.791E3,1.239E3,1.153E3,1.55E2,3.16E2,6E1,1.25E2,2.12E2,2.77E2,2.555E3,2.36E2,6.72E2,5.67E2,5.55E2,5.98E2,6.5E1,9E1,1.75E2,1.41E2,8E0,5.2E1,6.9E1,5.6E1,1.15E2,9.7E1,1.72E2,1.05E2,1.208E3,1.347E3,1.57E2,7.9E1,2.76E2,3.96E2,1E1,5.57E2,1.19E2,4.36E2,4.66E2,1.32E2,1.7E1,4.8E1,7.4E1,1.6E1,9.7E1,7.8E1,5.7E1,8.4E1,2.2E1,3E1,1.7E1,5.2E1,7.4E1,2.3E1,8E1,9.2E1,6.7E1,3.8E1,6.95E2,5.13E2,1.186E3,1.61E2,2.9E1,1.28E2,5.6E1,2.3E1,2.66E2,1E1,1.55E2,2.41E2,1.08E2,1.1E1,1.19E2,3.17E2,4.36E2,3E1,1.24E2,8E0,2.3E1,2.5E1,6.1E1,1.3E1,3.7E1,6E1,1.9E1,5.9E1,5.2E1,5E0,5.3E1,3.1E1,1E1,2E1,5E0,1.2E1,2.7E1,2.5E1,1.4E1,6.6E1,4.17E2,2.78E2,2.29E2,2.84E2,1.158E3,2.8E1,1.15E2,4.6E1,2E1,9E0,6.3E1,6.5E1,4.2E1,1.4E1,1.27E2,1.39E2,2.9E1,1.26E2,1.2E2,1.21E2,9.7E1,1.1E1,1.12E2,7E0,1.82E2,1.35E2,9.3E1,3.43E2,8E0,2.2E1,1.12E2,1.2E1,2.1E1,1.6E1,3.7E1,2.3E1,4.3E1,1.6E1,1.9E1,3.3E1,3.5E1,1.8E1,5E0,1.5E1],"tree_param":{"num_deleted":"0","num_feature":"10","num_nodes":"149","size_leaf_vector":"1"}},{"base_weights":[7.4326646E-1,-1.3910278E2,1.2286904E3,-3.3421378E2,1.7125914E2,7.10827E2,2.5365159E3,-5.633154E2,-2.8722696E2,-1.4688481E2,5.125265E2,4.5350943E2,9.1431573E2,8.756408E2,3.3873374E3,-6.444097E2,-5.1668164E2,-3.6947336E2,2.1179343E2,1.5739651E2,-4.9600845E2,8.4606824E2,1.8985187E2,1.6983989E2,5.662078E2,1.4648751E3,6.0367847E2,6.10289E2,8.420405E1,3.000819E3,4.5501543E3,-3.6359097E1,-5.5225775E2,-4.200032E2,-5.5931525E2,-4.449521E2,-2.9803268E2,2.728695E2,7.4507996E1,-2.1090886E2,5.516506E2,-4.3278073E2,-2.5206972E1,1.034E3,7.6423425E2,2.3256451E2,-1.2878773E2,7.0613174E1,2.1410074E2,5.8602577E1,6.3658215E2,7.511709E2,8.907412E1,2.0949675E2,7.397786E2,4.7353508E1,2.4909624E2,2.3957249E3,1.5827055E2,2.7163846E2,1.5569235E2,-2.9212833E1,-2.1968122E1,-2.333498E2,-4.823954E2,-5.8346106E2,-2.0805536E1,-2.8904047E2,-5.488526E2,-3.4887592E2,-1.811638E2,1.6659956E2,3.1486584E2,1.465324E2,-1.1899992E2,-6.70705E1,-3.0876047E2,8.237541E2,-1.6733209E2,-2.3130888E1,-1.7536123E1,4.8779303E2,1.089434E3,6.3369E2,9.734322E2,2.8006935E1,2.785969E2,-2.3178858E1,-2.7265253E2,1.8754578E0,4.2776546E0,7.7312317E0,1.2299024E1,-6.590927E0,1.6845448E1,5.256908E2,8.461396E2,2.7155502E2,7.2398254E1,-1.2698905E1,2.5536043E1,9.3845955E1,6.654217E2,3.1215574E1,1.2407686E2,1.546296E2,9.958127E1,-3.179669E-1,-1.6094784E1,-2.6213165E1,-2.102962E1,-2.6947592E1,-3.245537E1,-2.04154E1,-3.1846716E0,-2.3545792E1,-3.0724812E1,-1.801679E1,1.2906138E1,-2.0243948E0,-1.5198735E1,-2.3319204E0,1.0372538E1,1.8762802E1,1.3836154E1,-1.8612305E0,8.842911E0,-1.1343665E1,-1.8140427E0,-9.350932E0,5.038308E0,-1.7986135E1,1.691251E0,1.4965342E1,4.5427845E1,2.329002E0,-1.8353691E1,3.2647324E1,9.108742E0,5.2246162E1,8.897521E1,3.9443348E1,2.2455595E1,5.3158783E1,1.1134481E1,9.828654E0,-1.7331871E0,1.2423915E1,2.8225718E1,-2.610712E0,3.8090591E0,-9.367973E0,-2.2590183E1,2.9402842E1,1.5084027E1,3.1489561E1,4.5944878E1,-2.9511703E1,3.107482E1,2.0802021E1,3.9976402E1,1.4035466E0,1.717061E1],"categories":[],"categories_nodes":[],"categories_segments":[],"categories_sizes":[],"default_left":[0,0,0,0,0,0,0,0,0,0,0,0,0,0,0,0,0,0,0,0,0,0,0,0,0,0,0,0,0,0,0,0,0,0,0,0,0,0,0,0,0,0,0,0,0,0,0,0,0,0,0,0,0,0,0,0,0,0,0,0,0,0,0,0,0,0,0,0,0,0,0,0,0,0,0,0,0,0,0,0,0,0,0,0,0,0,0,0,0,0,0,0,0,0,0,0,0,0,0,0,0,0,0,0,0,0,0,0,0,0,0,0,0,0,0,0,0,0,0,0,0,0,0,0,0,0,0,0,0,0,0,0,0,0,0,0,0,0,0,0,0,0,0,0,0,0,0,0,0,0,0,0,0,0,0,0,0,0,0,0,0,0,0],"id":10,"left_children":[1,3,5,7,9,11,13,15,17,19,21,23,25,27,29,31,33,35,37,39,41,43,45,47,49,51,53,55,-1,57,59,-1,61,63,65,67,69,71,73,75,77,79,-1,81,83,85,87,89,91,93,95,97,-1,99,101,-1,103,105,-1,-1,-1,-1,-1,107,109,111,-1,113,115,117,119,121,123,125,127,129,131,133,135,-1,-1,137,139,141,143,145,147,149,151,-1,-1,-1,-1,-1,-1,153,155,157,-1,-1,-1,-1,159,-1,161,-1,-1,-1,-1,-1,-1,-1,-1,-1,-1,-1,-1,-1,-1,-1,-1,-1,-1,-1,-1,-1,-1,-1,-1,-1,-1,-1,-1,-1,-1,-1,-1,-1,-1,-1,-1,-1,-1,-1,-1,-1,-1,-1,-1,-1,-1,-1,-1,-1,-1,-1,-1,-1,-1,-1,-1,-1,-1],"loss_changes":[1.0799686E9,3.4195094E8,4.3368474E8,3.715965E7,2.3676256E8,2.377624E7,2.5421965E8,1.894496E6,1.1824E8,1.20013784E8,1.1306134E8,6.489468E6,4.306893E7,1.2487052E7,4.027981E7,1.20784E6,1.32724E6,1.3197024E7,3.400694E6,8.78207E7,5.224E4,7.160832E6,7.32488E6,2.4839325E5,5.213888E6,1.945048E7,8.75062E6,5.724592E6,0E0,1.678784E6,1.8579008E7,0E0,1.19002E5,1.284918E6,6.56232E5,1.9280512E7,7.500952E6,1.206094E6,1.7874735E6,4.384709E6,5.726405E7,1.79E3,0E0,4.131456E6,9.32384E6,4.446098E6,9.660579E5,6.6824062E3,3.970475E4,1.0513236E6,2.552908E6,9.632606E6,0E0,6.272543E6,9.151232E6,0E0,1.0952669E6,5.992E5,0E0,0E0,0E0,0E0,0E0,6.4112325E5,9.792E3,2.92968E5,0E0,1.2928508E7,3.389072E6,6.256152E6,6.69099E6,7.2397925E5,3.5915E5,5.248336E5,3.040803E5,2.5957015E6,3.259526E6,9.156688E6,3.478E6,0E0,0E0,6.8863175E5,2.410016E6,6.147512E6,9.060912E6,9.3645956E5,3.183744E6,1.1360611E5,3.2791975E5,0E0,0E0,0E0,0E0,0E0,0E0,1.03804E6,9.8154E4,6.096766E6,0E0,0E0,0E0,0E0,3.580264E6,0E0,4.1151E5,0E0,0E0,0E0,0E0,0E0,0E0,0E0,0E0,0E0,0E0,0E0,0E0,0E0,0E0,0E0,0E0,0E0,0E0,0E0,0E0,0E0,0E0,0E0,0E0,0E0,0E0,0E0,0E0,0E0,0E0,0E0,0E0,0E0,0E0,0E0,0E0,0E0,0E0,0E0,0E0,0E0,0E0,0E0,0E0,0E0,0E0,0E0,0E0,0E0,0E0,0E0,0E0,0E0,0E0,0E0,0E0,0E0,0E0],"parents":[2147483647,0,0,1,1,2,2,3,3,4,4,5,5,6,6,7,7,8,8,9,9,10,10,11,11,12,12,13,13,14,14,15,15,16,16,17,17,18,18,19,19,20,20,21,21,22,22,23,23,24,24,25,25,26,26,27,27,29,29,30,30,32,32,33,33,34,34,35,35,36,36,37,37,38,38,39,39,40,40,41,41,43,43,44,44,45,45,46,46,47,47,48,48,49,49,50,50,51,51,53,53,54,54,56,56,57,57,63,63,64,64,65,65,67,67,68,68,69,69,70,70,71,71,72,72,73,73,74,74,75,75,76,76,77,77,78,78,81,81,82,82,83,83,84,84,85,85,86,86,87,87,88,88,95,95,96,96,97,97,102,102,104,104],"right_children":[2,4,6,8,10,12,14,16,18,20,22,24,26,28,30,32,34,36,38,40,42,44,46,48,50,52,54,56,-1,58,60,-1,62,64,66,68,70,72,74,76,78,80,-1,82,84,86,88,90,92,94,96,98,-1,100,102,-1,104,106,-1,-1,-1,-1,-1,108,110,112,-1,114,116,118,120,122,124,126,128,130,132,134,136,-1,-1,138,140,142,144,146,148,150,152,-1,-1,-1,-1,-1,-1,154,156,158,-1,-1,-1,-1,160,-1,162,-1,-1,-1,-1,-1,-1,-1,-1,-1,-1,-1,-1,-1,-1,-1,-1,-1,-1,-1,-1,-1,-1,-1,-1,-1,-1,-1,-1,-1,-1,-1,-1,-1,-1,-1,-1,-1,-1,-1,-1,-1,-1,-1,-1,-1,-1,-1,-1,-1,-1,-1,-1,-1,-1,-1,-1,-1,-1],"split_conditions":[2E0,2.25E2,1.801E3,2.024E3,2.024E3,6.5E2,1.83E2,7E0,1.63E2,1E0,1E0,2E2,1.101E3,1.76E2,2.12E2,1E0,4.5E2,1E0,1.101E3,2.91E2,2.43E2,1.5E3,3.51E2,8E0,4E0,1.86E2,1.72E2,3E0,8.420405E1,1.91E2,6E3,-3.6359097E1,8.5E2,1E0,2.19E2,7.6E1,1.16E2,4.5E2,1E0,1.05E3,3.48E2,6E2,-2.5206972E1,2.34E2,3.07E2,4.5E2,3.6E2,1.72E2,2.59E2,1.67E2,4E2,4E0,8.907412E1,4E0,4E0,4.7353508E1,2.1E3,1.86E2,1.5827055E2,2.7163846E2,1.5569235E2,-2.9212833E1,-2.1968122E1,1.98E2,2.09E2,9.5E2,-2.0805536E1,2.025E3,2.025E3,1.315E3,2.025E3,1.71E2,7E2,1.315E3,1.87E2,2.63E2,3.5E3,2.99E2,1.15E3,-2.3130888E1,-1.7536123E1,1.05E3,3.15E2,2.74E2,5.2E3,2.47E2,1.8E3,1.315E3,1.05E3,1.8754578E0,4.2776546E0,7.7312317E0,1.2299024E1,-6.590927E0,1.6845448E1,2.55E2,2.9E1,8.5E2,7.2398254E1,-1.2698905E1,2.5536043E1,9.3845955E1,2.46E2,3.1215574E1,3.67E3,1.546296E2,9.958127E1,-3.179669E-1,-1.6094784E1,-2.6213165E1,-2.102962E1,-2.6947592E1,-3.245537E1,-2.04154E1,-3.1846716E0,-2.3545792E1,-3.0724812E1,-1.801679E1,1.2906138E1,-2.0243948E0,-1.5198735E1,-2.3319204E0,1.0372538E1,1.8762802E1,1.3836154E1,-1.8612305E0,8.842911E0,-1.1343665E1,-1.8140427E0,-9.350932E0,5.038308E0,-1.7986135E1,1.691251E0,1.4965342E1,4.5427845E1,2.329002E0,-1.8353691E1,3.2647324E1,9.108742E0,5.2246162E1,8.897521E1,3.9443348E1,2.2455595E1,5.3158783E1,1.1134481E1,9.828654E0,-1.7331871E0,1.2423915E1,2.8225718E1,-2.610712E0,3.8090591E0,-9.367973E0,-2.2590183E1,2.9402842E1,1.5084027E1,3.1489561E1,4.5944878E1,-2.9511703E1,3.107482E1,2.0802021E1,3.9976402E1,1.4035466E0,1.717061E1],"split_indices":[0,4,9,3,3,9,4,2,4,0,0,9,9,4,4,0,9,0,9,4,4,9,4,2,0,4,4,0,0,4,9,0,9,0,4,4,4,9,0,9,4,9,0,4,4,9,4,4,4,4,9,0,0,0,0,0,9,4,0,0,0,0,0,4,4,9,0,3,3,9,3,4,9,9,4,4,9,4,9,0,0,9,4,4,9,4,9,9,9,0,0,0,0,0,0,9,4,9,0,0,0,0,4,0,9,0,0,0,0,0,0,0,0,0,0,0,0,0,0,0,0,0,0,0,0,0,0,0,0,0,0,0,0,0,0,0,0,0,0,0,0,0,0,0,0,0,0,0,0,0,0,0,0,0,0,0,0,0,0,0,0,0,0],"split_type":[0,0,0,0,0,0,0,0,0,0,0,0,0,0,0,0,0,0,0,0,0,0,0,0,0,0,0,0,0,0,0,0,0,0,0,0,0,0,0,0,0,0,0,0,0,0,0,0,0,0,0,0,0,0,0,0,0,0,0,0,0,0,0,0,0,0,0,0,0,0,0,0,0,0,0,0,0,0,0,0,0,0,0,0,0,0,0,0,0,0,0,0,0,0,0,0,0,0,0,0,0,0,0,0,0,0,0,0,0,0,0,0,0,0,0,0,0,0,0,0,0,0,0,0,0,0,0,0,0,0,0,0,0,0,0,0,0,0,0,0,0,0,0,0,0,0,0,0,0,0,0,0,0,0,0,0,0,0,0,0,0,0,0],"sum_hessian":[6.287E3,5.645E3,6.42E2,3.466E3,2.179E3,4.61E2,1.81E2,5.88E2,2.878E3,1.128E3,1.051E3,2.05E2,2.56E2,6.2E1,1.19E2,2.1E2,3.78E2,2.471E3,4.07E2,6.03E2,5.25E2,5.16E2,5.35E2,5.9E1,1.46E2,9.1E1,1.65E2,4.8E1,1.4E1,9.2E1,2.7E1,1.07E2,1.03E2,1.19E2,2.59E2,1.199E3,1.272E3,2.81E2,1.26E2,3.12E2,2.91E2,6.6E1,4.59E2,1.53E2,3.63E2,4.72E2,6.3E1,1.9E1,4E1,1.8E1,1.28E2,2.9E1,6.2E1,4.3E1,1.22E2,2.4E1,2.4E1,2.3E1,6.9E1,1.5E1,1.2E1,7.7E1,2.6E1,3.1E1,8.8E1,2.19E2,4E1,4.81E2,7.18E2,8.85E2,3.87E2,8.1E1,2E2,9.2E1,3.4E1,1.27E2,1.85E2,2.11E2,8E1,4.5E1,2.1E1,1.5E1,1.38E2,2.26E2,1.37E2,8.7E1,3.85E2,3.7E1,2.6E1,7E0,1.2E1,1.6E1,2.4E1,1.1E1,7E0,8.6E1,4.2E1,1.8E1,1.1E1,1.7E1,2.6E1,6E0,1.16E2,5E0,1.9E1,6E0,1.7E1,9E0,2.2E1,4.8E1,4E1,1.36E2,8.3E1,3.14E2,1.67E2,3.32E2,3.86E2,8.69E2,1.6E1,1.81E2,2.06E2,1.3E1,6.8E1,7.4E1,1.26E2,1.3E1,7.9E1,1.4E1,2E1,7.4E1,5.3E1,1.61E2,2.4E1,3E1,1.81E2,3.9E1,4.1E1,9E0,6E0,1.32E2,6E0,1.21E2,1.05E2,1.22E2,1.5E1,2.3E1,6.4E1,3.5E2,3.5E1,2.9E1,8E0,1.9E1,7E0,6.6E1,2E1,1.3E1,2.9E1,5E0,1.3E1,4.2E1,7.4E1,1.4E1,5E0],"tree_param":{"num_deleted":"0","num_feature":"10","num_nodes":"163","size_leaf_vector":"1"}},{"base_weights":[6.146523E0,-1.2863132E2,1.1178577E3,-3.1888287E2,1.7162337E2,6.441581E2,2.3109949E3,-3.549552E2,-1.5342482E2,4.713532E2,-1.4515381E2,4.1057516E2,8.5010834E2,7.4725854E2,3.1877231E3,-4.470191E2,-2.7272034E2,-2.877909E2,-9.016736E1,8.052014E2,2.5653607E2,-3.5349432E2,4.37386E0,1.7244221E2,5.1032196E2,1.3492223E3,3.085966E2,9.077647E1,5.423694E2,4.3883433E3,2.519255E3,-2.6306537E2,-5.331414E2,-3.4627258E2,-2.0438205E2,-2.5164166E2,-3.5627655E2,1.21659996E2,-1.5785599E2,8.9638574E2,-1.2905165E2,1.1871923E2,5.1545715E2,-4.9489456E2,-2.7237527E2,-5.160484E1,4.387385E2,1.1103674E2,1.2094565E1,3.1876904E1,5.9270184E2,6.437117E2,1.7566554E3,-1.9255375E1,3.46491E2,4.5595448E1,2.4179974E2,1.9017764E2,2.8718875E2,2.1864692E3,3.0829673E3,8.112694E0,-3.8402353E2,-3.8550177E2,-5.945938E2,-3.6188153E2,4.6438877E1,-3.228741E2,-1.25959694E2,-3.3650934E2,-1.5767996E2,-4.0717975E2,-2.2780882E2,-1.0185726E2,3.7989554E2,-2.3490823E2,-1.778927E1,6.630712E2,1.2400653E3,7.4104333E0,-1.7289479E2,-2.0640031E2,2.325939E2,6.3791846E2,-4.257855E2,-3.0488485E1,-4.2428748E2,-2.3317671E2,-5.646438E2,1.3556642E2,-1.5208519E2,5.1901355E2,4.007772E-2,7.240035E1,7.3948045E0,3.1385096E1,-2.8543497E2,5.0485767E2,9.0849506E2,2.5915613E2,7.3436485E1,1.4487766E2,8.24565E1,2.929644E2,2.1459585E1,-6.570593E1,3.854776E2,1.1716554E2,7.497481E1,2.0051315E2,1.21632774E2,2.1470562E1,-2.4540641E0,-6.36471E0,-2.4342102E1,-2.2467745E1,-1.5867113E1,-2.5069344E1,-3.1555206E1,-2.0358862E1,-1.3765512E1,-2.6794785E1,-1.3426796E1,-1.6497946E1,-3.4337742E0,-1.8138006E1,-7.2676864E0,5.74176E-1,-9.617592E0,-2.5526724E1,-1.4081393E1,-1.8824097E0,-2.1661036E1,-9.503535E0,3.6189458E-1,1.1379648E1,2.2803732E1,-2.671529E1,-2.486763E0,1.0383723E1,-1.2542595E1,4.771276E1,1.3841522E1,7.894551E1,5.2958046E1,-3.8358982E0,-1.5584009E1,-7.274537E0,-1.386032E1,1.5917644E1,3.8859413E0,3.5694984E1,1.3065343E1,-7.442017E-2,-2.9771498E1,-1.2370032E1,-2.2818836E1,-1.6044554E1,-7.517045E0,-1.8981588E1,-3.0433119E1,1.1987013E1,-7.206657E0,-1.2856334E1,-1.4204849E0,1.8615908E1,2.8895674E1,4.7196026E0,2.9814224E0,-2.212171E1,3.8067994E0,2.632306E1,1.1700796E1,6.8445366E1,3.77769E1,-9.046377E0,3.808286E1,1.2008727E1,1.5706624E1,-1.1508831E1,6.856376E0,2.5494642E1,3.6455262E0],"categories":[],"categories_nodes":[],"categories_segments":[],"categories_sizes":[],"default_left":[0,0,0,0,0,0,0,0,0,0,0,0,0,0,0,0,0,0,0,0,0,0,0,0,0,0,0,0,0,0,0,0,0,0,0,0,0,0,0,0,0,0,0,0,0,0,0,0,0,0,0,0,0,0,0,0,0,0,0,0,0,0,0,0,0,0,0,0,0,0,0,0,0,0,0,0,0,0,0,0,0,0,0,0,0,0,0,0,0,0,0,0,0,0,0,0,0,0,0,0,0,0,0,0,0,0,0,0,0,0,0,0,0,0,0,0,0,0,0,0,0,0,0,0,0,0,0,0,0,0,0,0,0,0,0,0,0,0,0,0,0,0,0,0,0,0,0,0,0,0,0,0,0,0,0,0,0,0,0,0,0,0,0,0,0,0,0,0,0,0,0,0,0,0,0,0,0,0,0,0,0,0,0],"id":11,"left_children":[1,3,5,7,9,11,13,15,17,19,21,23,25,27,29,31,33,35,37,39,41,43,45,47,49,51,53,-1,55,57,59,61,63,65,67,69,71,73,75,77,79,81,83,85,87,89,91,93,-1,95,97,99,101,-1,103,-1,105,-1,-1,107,109,111,113,115,117,119,-1,121,123,125,127,129,131,133,135,137,139,141,143,-1,145,147,149,151,153,-1,155,157,159,161,163,165,-1,167,-1,-1,169,171,173,175,-1,-1,-1,177,-1,179,181,-1,-1,-1,-1,-1,-1,-1,-1,-1,-1,-1,-1,-1,-1,-1,-1,-1,-1,-1,-1,-1,-1,-1,-1,-1,-1,-1,-1,-1,-1,-1,-1,-1,-1,-1,-1,-1,-1,-1,-1,-1,-1,-1,-1,-1,-1,-1,-1,-1,-1,-1,-1,-1,-1,-1,-1,-1,-1,-1,-1,-1,-1,-1,-1,-1,-1,-1,-1,-1,-1,-1,-1,-1,-1,-1,-1],"loss_changes":[9.47844E8,3.223479E8,3.8510048E8,2.0560576E7,2.0790867E8,2.3271248E7,2.6358643E8,2.1341504E7,5.243838E6,8.047427E7,3.317914E7,5.422696E6,6.985541E7,1.4555588E7,8.846413E7,2.102536E7,7.46888E6,4.00537E5,6.084308E6,3.7598976E7,2.441782E7,4.969464E6,1.5122359E7,2.7166E5,6.405628E6,3.767477E7,3.445665E6,0E0,6.554916E6,1.2236928E7,8.641984E6,1.4042024E7,8.017968E6,1.4685576E7,7.207426E6,1.007523E6,3.388425E5,5.9838655E6,3.4601995E6,3.1332128E7,5.118632E5,1.6671283E7,2.7704888E7,1.047156E6,3.133442E6,1.0383294E7,2.49562E6,4.4832625E4,0E0,4.9057265E6,3.397284E6,1.5799896E7,5.648992E6,0E0,4.05465E5,0E0,1.5716899E6,0E0,0E0,2.41224E6,7.12928E6,3.2258092E6,7.7514E6,1.032496E6,1.861504E6,2.683784E6,0E0,3.444408E6,5.481415E6,2.93513E5,3.83448E5,4.531325E5,8.0397625E5,5.403007E5,4.531095E5,1.1449575E7,6.0950205E6,2.6840408E7,8.196752E6,0E0,4.4326656E5,4.64263E5,4.398138E6,5.851312E6,2.0145435E6,0E0,4.71738E5,1.790028E6,3.7684E4,5.658068E6,4.6564855E6,3.03252E5,0E0,2.699453E2,0E0,0E0,9.987135E5,5.26276E5,1.008014E6,8.0989355E6,0E0,0E0,0E0,9.481E3,0E0,4.3188544E5,8.96138E5,0E0,0E0,0E0,0E0,0E0,0E0,0E0,0E0,0E0,0E0,0E0,0E0,0E0,0E0,0E0,0E0,0E0,0E0,0E0,0E0,0E0,0E0,0E0,0E0,0E0,0E0,0E0,0E0,0E0,0E0,0E0,0E0,0E0,0E0,0E0,0E0,0E0,0E0,0E0,0E0,0E0,0E0,0E0,0E0,0E0,0E0,0E0,0E0,0E0,0E0,0E0,0E0,0E0,0E0,0E0,0E0,0E0,0E0,0E0,0E0,0E0,0E0,0E0,0E0,0E0,0E0,0E0,0E0,0E0,0E0,0E0,0E0,0E0,0E0,0E0,0E0],"parents":[2147483647,0,0,1,1,2,2,3,3,4,4,5,5,6,6,7,7,8,8,9,9,10,10,11,11,12,12,13,13,14,14,15,15,16,16,17,17,18,18,19,19,20,20,21,21,22,22,23,23,24,24,25,25,26,26,28,28,29,29,30,30,31,31,32,32,33,33,34,34,35,35,36,36,37,37,38,38,39,39,40,40,41,41,42,42,43,43,44,44,45,45,46,46,47,47,49,49,50,50,51,51,52,52,54,54,56,56,59,59,60,60,61,61,62,62,63,63,64,64,65,65,67,67,68,68,69,69,70,70,71,71,72,72,73,73,74,74,75,75,76,76,77,77,78,78,80,80,81,81,82,82,83,83,84,84,86,86,87,87,88,88,89,89,90,90,91,91,93,93,96,96,97,97,98,98,99,99,103,103,105,105,106,106],"right_children":[2,4,6,8,10,12,14,16,18,20,22,24,26,28,30,32,34,36,38,40,42,44,46,48,50,52,54,-1,56,58,60,62,64,66,68,70,72,74,76,78,80,82,84,86,88,90,92,94,-1,96,98,100,102,-1,104,-1,106,-1,-1,108,110,112,114,116,118,120,-1,122,124,126,128,130,132,134,136,138,140,142,144,-1,146,148,150,152,154,-1,156,158,160,162,164,166,-1,168,-1,-1,170,172,174,176,-1,-1,-1,178,-1,180,182,-1,-1,-1,-1,-1,-1,-1,-1,-1,-1,-1,-1,-1,-1,-1,-1,-1,-1,-1,-1,-1,-1,-1,-1,-1,-1,-1,-1,-1,-1,-1,-1,-1,-1,-1,-1,-1,-1,-1,-1,-1,-1,-1,-1,-1,-1,-1,-1,-1,-1,-1,-1,-1,-1,-1,-1,-1,-1,-1,-1,-1,-1,-1,-1,-1,-1,-1,-1,-1,-1,-1,-1,-1,-1,-1,-1],"split_conditions":[2E0,2.25E2,2E3,1.88E2,1E0,6.5E2,1.83E2,1E0,6E2,3E0,6E2,2E2,4E0,2E0,3E0,7E1,9.2E1,4.5E2,2E0,3.44E2,3.02E2,3E0,1.5E3,2.59E2,4E0,1.81E2,4E0,9.077647E1,3E0,2.11E2,2.08E2,2E0,2E0,1.315E3,2E0,4E2,2.12E2,1E0,1E0,2.97E2,3.48E2,1.25E3,3.54E2,1E0,4E0,3E0,3.46E2,2.06E2,1.2094565E1,2E0,4.5E2,4E0,4E0,-1.9255375E1,2E0,4.5595448E1,1.71E2,1.9017764E2,2.8718875E2,4E0,3.5E3,6.5E2,2E1,2E0,9.9E1,7.5E2,4.6438877E1,4.5E2,4E2,6E0,1.97E2,1E0,1E0,7.5E2,6.5E2,1.1E3,8.5E2,1.255E3,1.45E3,7.4104333E0,2E0,4E0,1E1,4E0,1.05E3,-3.0488485E1,9E0,3.5E2,2.48E2,1.2E1,9.61E2,1.501E3,4.007772E-2,1.65E2,7.3948045E0,3.1385096E1,4E0,3.26E2,1E1,1.71E2,7.3436485E1,1.4487766E2,8.24565E1,1.25E3,2.1459585E1,3.1E3,4E0,1.1716554E2,7.497481E1,2.0051315E2,1.21632774E2,2.1470562E1,-2.4540641E0,-6.36471E0,-2.4342102E1,-2.2467745E1,-1.5867113E1,-2.5069344E1,-3.1555206E1,-2.0358862E1,-1.3765512E1,-2.6794785E1,-1.3426796E1,-1.6497946E1,-3.4337742E0,-1.8138006E1,-7.2676864E0,5.74176E-1,-9.617592E0,-2.5526724E1,-1.4081393E1,-1.8824097E0,-2.1661036E1,-9.503535E0,3.6189458E-1,1.1379648E1,2.2803732E1,-2.671529E1,-2.486763E0,1.0383723E1,-1.2542595E1,4.771276E1,1.3841522E1,7.894551E1,5.2958046E1,-3.8358982E0,-1.5584009E1,-7.274537E0,-1.386032E1,1.5917644E1,3.8859413E0,3.5694984E1,1.3065343E1,-7.442017E-2,-2.9771498E1,-1.2370032E1,-2.2818836E1,-1.6044554E1,-7.517045E0,-1.8981588E1,-3.0433119E1,1.1987013E1,-7.206657E0,-1.2856334E1,-1.4204849E0,1.8615908E1,2.8895674E1,4.7196026E0,2.9814224E0,-2.212171E1,3.8067994E0,2.632306E1,1.1700796E1,6.8445366E1,3.77769E1,-9.046377E0,3.808286E1,1.2008727E1,1.5706624E1,-1.1508831E1,6.856376E0,2.5494642E1,3.6455262E0],"split_indices":[0,4,9,4,0,9,4,0,9,1,9,9,1,1,1,4,4,9,1,4,4,1,9,4,0,4,0,0,0,4,4,8,1,9,8,9,4,1,0,4,4,9,4,1,1,1,4,4,0,1,9,0,0,0,7,0,4,0,0,1,9,9,4,8,4,9,0,9,9,5,4,0,1,9,9,9,9,9,9,0,1,5,2,1,9,0,2,9,4,2,9,9,0,4,0,0,5,4,2,4,0,0,0,9,0,9,1,0,0,0,0,0,0,0,0,0,0,0,0,0,0,0,0,0,0,0,0,0,0,0,0,0,0,0,0,0,0,0,0,0,0,0,0,0,0,0,0,0,0,0,0,0,0,0,0,0,0,0,0,0,0,0,0,0,0,0,0,0,0,0,0,0,0,0,0,0,0,0,0,0,0,0,0],"split_type":[0,0,0,0,0,0,0,0,0,0,0,0,0,0,0,0,0,0,0,0,0,0,0,0,0,0,0,0,0,0,0,0,0,0,0,0,0,0,0,0,0,0,0,0,0,0,0,0,0,0,0,0,0,0,0,0,0,0,0,0,0,0,0,0,0,0,0,0,0,0,0,0,0,0,0,0,0,0,0,0,0,0,0,0,0,0,0,0,0,0,0,0,0,0,0,0,0,0,0,0,0,0,0,0,0,0,0,0,0,0,0,0,0,0,0,0,0,0,0,0,0,0,0,0,0,0,0,0,0,0,0,0,0,0,0,0,0,0,0,0,0,0,0,0,0,0,0,0,0,0,0,0,0,0,0,0,0,0,0,0,0,0,0,0,0,0,0,0,0,0,0,0,0,0,0,0,0,0,0,0,0,0,0],"sum_hessian":[6.324E3,5.641E3,6.83E2,3.453E3,2.188E3,4.9E2,1.93E2,2.834E3,6.19E2,1.124E3,1.064E3,2.31E2,2.59E2,7E1,1.23E2,1.335E3,1.499E3,1.97E2,4.22E2,4.39E2,6.85E2,4.44E2,6.2E2,6.9E1,1.62E2,1.34E2,1.25E2,1E1,6E1,4.2E1,8.1E1,4.27E2,9.08E2,7.2E2,7.79E2,1.32E2,6.5E1,1.02E2,3.2E2,4E2,3.9E1,4.48E2,2.37E2,1.6E2,2.84E2,5.5E2,7E1,3.8E1,3.1E1,2.4E1,1.38E2,5E1,8.4E1,6E0,1.19E2,2.6E1,3.4E1,3.2E1,1E1,5.4E1,2.7E1,1.32E2,2.95E2,2.69E2,6.39E2,7.12E2,8E0,3.09E2,4.7E2,6.8E1,6.4E1,4.5E1,2E1,5.5E1,4.7E1,2.06E2,1.14E2,2.4E2,1.6E2,5E0,3.4E1,1.16E2,3.32E2,2.1E2,2.7E1,5.8E1,1.02E2,2.52E2,3.2E1,1.92E2,3.58E2,5.9E1,1.1E1,2E1,1.8E1,8E0,1.6E1,1.1E2,2.8E1,3.5E1,1.5E1,5E0,7.9E1,7.5E1,4.4E1,1.1E1,2.3E1,4.2E1,1.2E1,9E0,1.8E1,1.5E1,1.17E2,8.5E1,2.1E2,